{"learner":{"attributes":{"scikit_learn":"{\"_estimator_type\": \"classifier\"}"},"feature_names":["DOY","Hour","IMF_Mag","Plasma_Speed","Proton_Density","By_GSE","Bz_GSE","Energy_Flux","B_total","B_azimuth","Newell_Coupling","Newell_3H_Integral","Bz_3H_Max","Bz_3H_Min","B_std_3H"],"feature_types":["float","int","float","float","float","float","float","float","float","float","float","float","float","float","float"],"gradient_booster":{"model":{"cats":{"enc":[],"feature_segments":[],"sorted_idx":[]},"gbtree_model_param":{"num_parallel_tree":"1","num_trees":"100"},"iteration_indptr":[0,1,2,3,4,5,6,7,8,9,10,11,12,13,14,15,16,17,18,19,20,21,22,23,24,25,26,27,28,29,30,31,32,33,34,35,36,37,38,39,40,41,42,43,44,45,46,47,48,49,50,51,52,53,54,55,56,57,58,59,60,61,62,63,64,65,66,67,68,69,70,71,72,73,74,75,76,77,78,79,80,81,82,83,84,85,86,87,88,89,90,91,92,93,94,95,96,97,98,99,100],"tree_info":[0,0,0,0,0,0,0,0,0,0,0,0,0,0,0,0,0,0,0,0,0,0,0,0,0,0,0,0,0,0,0,0,0,0,0,0,0,0,0,0,0,0,0,0,0,0,0,0,0,0,0,0,0,0,0,0,0,0,0,0,0,0,0,0,0,0,0,0,0,0,0,0,0,0,0,0,0,0,0,0,0,0,0,0,0,0,0,0,0,0,0,0,0,0,0,0,0,0,0,0],"trees":[{"base_weights":[7.9676816E-8,-8.604214E-1,1.1886619E0,-1.5707862E0,6.239361E-1,-2.8361908E-1,1.4238148E0,2.7554262E-1,-1.6990346E0,1.6959816E-1,1.300634E0,1.3398683E0,-1.2335018E0,1.8401897E0,1.0643878E0,-9.651281E-1,1.0263927E0,-1.8111787E0,-2.8025326E-1,-5.3737414E-1,1.1910361E0,7.42176E-1,1.6163256E0,1.7388504E0,7.4526906E-1,-1.5292697E0,7.7738285E-2,1.9314004E0,1.6438302E0,2.9408765E-1,1.5658904E0,-1.69668E-1,8.917907E-2,5.1435627E-2,1.5911879E-1,-2.1066074E-1,-1.4803542E-1,-1.621613E-1,3.1403475E-2,1.10182084E-1,-1.0582178E-1,8.071129E-2,1.65907E-1,1.8297393E-2,1.5042993E-1,1.8464342E-1,3.0385993E-2,-1.9780582E-1,1.9526997E-1,-2.1769415E-1,9.941277E-2,-1.7913868E-1,6.257041E-3,-8.786178E-2,1.2007941E-1,2.1851845E-1,2.0505948E-1,1.3830289E-1,1.989777E-1,-8.620193E-2,9.783212E-2,1.4909728E-1,2.0369014E-1],"categories":[],"categories_nodes":[],"categories_segments":[],"categories_sizes":[],"default_left":[0,0,0,0,0,0,0,0,0,0,0,0,0,0,0,0,0,0,0,0,0,0,0,0,0,0,0,0,0,0,0,0,0,0,0,0,0,0,0,0,0,0,0,0,0,0,0,0,0,0,0,0,0,0,0,0,0,0,0,0,0,0,0],"id":0,"left_children":[1,3,5,7,9,11,13,15,17,19,21,23,25,27,29,31,33,35,37,39,41,43,45,47,49,51,53,55,57,59,61,-1,-1,-1,-1,-1,-1,-1,-1,-1,-1,-1,-1,-1,-1,-1,-1,-1,-1,-1,-1,-1,-1,-1,-1,-1,-1,-1,-1,-1,-1,-1,-1],"loss_changes":[1.2204045E5,7.298921E4,1.7347508E4,1.1085977E4,6.888244E3,1.0644643E4,6.4639453E3,2.834371E3,6.9645234E3,9.681608E3,1.5855117E3,6.031699E2,1.6889121E3,3.553125E2,8.958258E3,1.1443717E3,4.3375024E2,1.6764062E3,2.133338E3,5.0437E3,7.713242E2,1.1508177E3,3.6329785E2,1.1227197E2,4.1878864E2,4.7668457E2,7.0120294E2,3.9101562E1,3.739004E2,5.751534E3,8.3934375E2,0E0,0E0,0E0,0E0,0E0,0E0,0E0,0E0,0E0,0E0,0E0,0E0,0E0,0E0,0E0,0E0,0E0,0E0,0E0,0E0,0E0,0E0,0E0,0E0,0E0,0E0,0E0,0E0,0E0,0E0,0E0,0E0],"parents":[2147483647,0,0,1,1,2,2,3,3,4,4,5,5,6,6,7,7,8,8,9,9,10,10,11,11,12,12,13,13,14,14,15,15,16,16,17,17,18,18,19,19,20,20,21,21,22,22,23,23,24,24,25,25,26,26,27,27,28,28,29,29,30,30],"right_children":[2,4,6,8,10,12,14,16,18,20,22,24,26,28,30,32,34,36,38,40,42,44,46,48,50,52,54,56,58,60,62,-1,-1,-1,-1,-1,-1,-1,-1,-1,-1,-1,-1,-1,-1,-1,-1,-1,-1,-1,-1,-1,-1,-1,-1,-1,-1,-1,-1,-1,-1,-1,-1],"split_conditions":[7.1140704E0,5.32E2,3.82E2,-3.7E0,3.8E0,-5.3E0,-3.8E0,4.12E2,2.3100212E0,6.62E2,5.91E2,-8.6E0,1.30268955E1,-6.7E0,4.93E2,1.67E1,6.5E0,4.71E2,4.05E2,-2.1E0,7.05E2,5.7E0,3.19E2,3.09E2,3.21E2,2.73E1,1.62E1,-8.6E0,4.52E2,7.2E0,1.1856222E1,-1.69668E-1,8.917907E-2,5.1435627E-2,1.5911879E-1,-2.1066074E-1,-1.4803542E-1,-1.621613E-1,3.1403475E-2,1.10182084E-1,-1.0582178E-1,8.071129E-2,1.65907E-1,1.8297393E-2,1.5042993E-1,1.8464342E-1,3.0385993E-2,-1.9780582E-1,1.9526997E-1,-2.1769415E-1,9.941277E-2,-1.7913868E-1,6.257041E-3,-8.786178E-2,1.2007941E-1,2.1851845E-1,2.0505948E-1,1.3830289E-1,1.989777E-1,-8.620193E-2,9.783212E-2,1.4909728E-1,2.0369014E-1],"split_indices":[8,3,3,5,4,5,5,3,14,3,3,5,8,5,3,4,4,3,3,5,3,4,0,3,3,4,4,5,3,4,8,0,0,0,0,0,0,0,0,0,0,0,0,0,0,0,0,0,0,0,0,0,0,0,0,0,0,0,0,0,0,0,0],"split_type":[0,0,0,0,0,0,0,0,0,0,0,0,0,0,0,0,0,0,0,0,0,0,0,0,0,0,0,0,0,0,0,0,0,0,0,0,0,0,0,0,0,0,0,0,0,0,0,0,0,0,0,0,0,0,0,0,0,0,0,0,0,0,0],"sum_hessian":[1.19323766E5,6.921921E4,5.0104555E4,4.6815023E4,2.2404191E4,6.900519E3,4.3204035E4,3.040551E3,4.3774473E4,1.3405159E4,8.999031E3,2.546969E3,4.35355E3,2.0014412E4,2.3189623E4,1.1462515E3,1.8942996E3,4.0567625E4,3.2068447E3,7.922322E3,5.482837E3,3.2511333E3,5.7478984E3,1.5230576E3,1.0239113E3,3.5521487E3,8.0140125E2,1.3660259E4,6.354153E3,9.144856E3,1.4044766E4,8.694141E2,2.7683734E2,7.9583936E2,1.0984602E3,3.43335E4,6.234128E3,1.035133E3,2.1717117E3,1.693189E3,6.229133E3,2.1702607E3,3.3125764E3,1.6749906E3,1.5761427E3,5.5527417E3,1.9515701E2,8.249992E0,1.5148076E3,5.324995E1,9.706614E2,3.372226E3,1.799225E2,4.2964133E2,3.7175992E2,9.449899E3,4.210359E3,1.7318229E3,4.62233E3,3.2391694E3,5.905687E3,7.689368E3,6.355398E3],"tree_param":{"num_deleted":"0","num_feature":"15","num_nodes":"63","size_leaf_vector":"1"}},{"base_weights":[-3.531415E-5,-7.7135056E-1,1.0651712E0,-1.4103694E0,5.574613E-1,-5.055975E-1,1.2443615E0,-1.5224442E-1,-1.5671182E0,1.2566135E0,1.8454887E-1,1.0558565E0,-1.30677E0,1.643491E0,8.977903E-1,-1.1110746E0,6.553306E-1,-1.6330165E0,2.4953382E-1,1.5850718E0,1.0080606E0,-2.9339367E-1,9.9901944E-1,1.4932729E0,4.5557377E-1,-1.5798445E0,-2.5501934E-1,1.7306167E0,1.4549434E0,-2.9280728E-1,1.2148969E0,-1.6544002E-1,6.6735126E-2,-1.3223616E-2,1.3960421E-1,-1.9135094E-1,-1.3401787E-1,-1.3047965E-1,6.523439E-2,1.770142E-1,-2.0911026E-1,3.652367E-2,1.4162958E-1,-1.300453E-1,5.466089E-2,6.450898E-2,1.5540795E-1,-1.7987843E-1,1.6878456E-1,-1.9637762E-1,7.00499E-2,-2.0170246E-1,-1.3502558E-1,-9.788958E-2,7.064911E-2,1.9619432E-1,1.8273799E-1,1.0919095E-1,1.7513174E-1,-9.019259E-2,1.04394995E-1,8.25365E-2,1.6601543E-1],"categories":[],"categories_nodes":[],"categories_segments":[],"categories_sizes":[],"default_left":[0,0,0,0,0,0,0,0,0,0,0,0,0,0,0,0,0,0,0,0,0,0,0,0,0,0,0,0,0,0,0,0,0,0,0,0,0,0,0,0,0,0,0,0,0,0,0,0,0,0,0,0,0,0,0,0,0,0,0,0,0,0,0],"id":1,"left_children":[1,3,5,7,9,11,13,15,17,19,21,23,25,27,29,31,33,35,37,39,41,43,45,47,49,51,53,55,57,59,61,-1,-1,-1,-1,-1,-1,-1,-1,-1,-1,-1,-1,-1,-1,-1,-1,-1,-1,-1,-1,-1,-1,-1,-1,-1,-1,-1,-1,-1,-1,-1,-1],"loss_changes":[9.728106E4,5.8315395E4,1.3997309E4,9.14525E3,5.814354E3,6.37228E3,6.172875E3,3.9798132E3,4.937039E3,6.3171094E2,5.6623857E3,4.5291284E2,9.6638525E2,3.382461E2,9.021156E3,1.5272935E3,1.3017212E3,1.5369922E3,6.967109E2,1.1481348E2,8.033042E2,6.3269346E3,9.006489E2,8.740161E1,2.8600116E2,2.2821533E2,3.8898224E2,4.1226562E1,3.782588E2,3.2224875E3,2.4954863E3,0E0,0E0,0E0,0E0,0E0,0E0,0E0,0E0,0E0,0E0,0E0,0E0,0E0,0E0,0E0,0E0,0E0,0E0,0E0,0E0,0E0,0E0,0E0,0E0,0E0,0E0,0E0,0E0,0E0,0E0,0E0,0E0],"parents":[2147483647,0,0,1,1,2,2,3,3,4,4,5,5,6,6,7,7,8,8,9,9,10,10,11,11,12,12,13,13,14,14,15,15,16,16,17,17,18,18,19,19,20,20,21,21,22,22,23,23,24,24,25,25,26,26,27,27,28,28,29,29,30,30],"right_children":[2,4,6,8,10,12,14,16,18,20,22,24,26,28,30,32,34,36,38,40,42,44,46,48,50,52,54,56,58,60,62,-1,-1,-1,-1,-1,-1,-1,-1,-1,-1,-1,-1,-1,-1,-1,-1,-1,-1,-1,-1,-1,-1,-1,-1,-1,-1,-1,-1,-1,-1,-1,-1],"split_conditions":[7.1140704E0,5.32E2,3.71E2,-2.8E0,-1.6E0,-5.3E0,-3.8E0,4.18E2,2.9519854E0,-3.2E0,6.55E2,-8.6E0,1.73E1,-6.7E0,4.35E2,1.67E1,6.2E0,4.65E2,3.89E2,3.5E2,5.95E2,3.3E0,2.9E0,3.09E2,3.21E2,3.51E2,1.154123E1,-8.6E0,4.29E2,1.3529597E1,5.24E2,-1.6544002E-1,6.6735126E-2,-1.3223616E-2,1.3960421E-1,-1.9135094E-1,-1.3401787E-1,-1.3047965E-1,6.523439E-2,1.770142E-1,-2.0911026E-1,3.652367E-2,1.4162958E-1,-1.300453E-1,5.466089E-2,6.450898E-2,1.5540795E-1,-1.7987843E-1,1.6878456E-1,-1.9637762E-1,7.00499E-2,-2.0170246E-1,-1.3502558E-1,-9.788958E-2,7.064911E-2,1.9619432E-1,1.8273799E-1,1.0919095E-1,1.7513174E-1,-9.019259E-2,1.04394995E-1,8.25365E-2,1.6601543E-1],"split_indices":[8,3,3,5,5,5,5,3,14,5,3,5,4,5,3,4,4,3,3,0,3,4,4,3,3,3,8,5,3,8,3,0,0,0,0,0,0,0,0,0,0,0,0,0,0,0,0,0,0,0,0,0,0,0,0,0,0,0,0,0,0,0,0],"split_type":[0,0,0,0,0,0,0,0,0,0,0,0,0,0,0,0,0,0,0,0,0,0,0,0,0,0,0,0,0,0,0,0,0,0,0,0,0,0,0,0,0,0,0,0,0,0,0,0,0,0,0,0,0,0,0,0,0,0,0,0,0,0,0],"sum_hessian":[1.18400945E5,6.867425E4,4.9726695E4,4.637344E4,2.2300812E4,5.0916704E3,4.4635027E4,5.1377646E3,4.1235676E4,7.7564043E3,1.4544407E4,1.7264904E3,3.3651802E3,2.0742799E4,2.3892229E4,2.3487402E3,2.7890244E3,3.9792324E4,1.4433497E3,3.338826E3,4.4175786E3,9.166196E3,5.3782104E3,9.978704E2,7.2861993E2,2.6711467E3,6.9403345E2,1.418151E4,6.561289E3,5.025128E3,1.88671E4,1.9228438E3,4.2589648E2,1.2205553E3,1.568469E3,3.2789496E4,7.0028306E3,2.7634616E2,1.1670035E3,3.3301018E3,8.724118E0,1.2503795E3,3.167199E3,4.328509E3,4.8376875E3,2.6351204E3,2.74309E3,8.168234E0,9.897022E2,5.2612812E1,6.7600714E2,1.6135295E3,1.0576172E3,4.07503E2,2.8653046E2,9.8510205E3,4.3304883E3,1.3583851E3,5.202904E3,3.5355269E3,1.4896012E3,7.0442666E3,1.1822833E4],"tree_param":{"num_deleted":"0","num_feature":"15","num_nodes":"63","size_leaf_vector":"1"}},{"base_weights":[-1.829735E-4,-7.0039517E-1,9.6631163E-1,-1.2246777E0,6.536764E-1,-1.0200882E-1,1.1855531E0,-1.4713057E-2,-1.3851683E0,1.1628089E-1,1.043334E0,1.0956708E0,-9.768098E-1,1.500115E0,8.7885875E-1,-1.0067984E0,6.629395E-1,-1.4891264E0,-9.1975845E-2,-5.256469E-1,1.0137894E0,1.1121281E0,-4.3997958E-1,-2.734714E-1,1.2344683E0,-1.303649E0,1.4692451E-1,1.5896385E0,1.3072362E0,3.419897E-1,1.3423249E0,-1.5046772E-1,5.9396E-2,-2.1273554E-3,1.1923074E-1,-1.7551406E-1,-1.1874536E-1,-1.4124398E-1,3.409856E-2,-1.1110081E-1,7.641949E-2,6.5739356E-2,1.4434372E-1,4.9227353E-2,1.3837075E-1,-1.6359322E-1,6.625784E-2,3.6401063E-2,-1.6850361E-1,1.6044009E-1,7.46623E-2,-1.6248444E-1,-6.573711E-2,-5.7562925E-2,1.0371373E-1,1.810039E-1,1.688345E-1,1.1148085E-1,1.6446947E-1,-7.015974E-2,9.702415E-2,1.24271914E-1,1.6866207E-1],"categories":[],"categories_nodes":[],"categories_segments":[],"categories_sizes":[],"default_left":[0,0,0,0,0,0,0,0,0,0,0,0,0,0,0,0,0,0,0,0,0,0,0,0,0,0,0,0,0,0,0,0,0,0,0,0,0,0,0,0,0,0,0,0,0,0,0,0,0,0,0,0,0,0,0,0,0,0,0,0,0,0,0],"id":2,"left_children":[1,3,5,7,9,11,13,15,17,19,21,23,25,27,29,31,33,35,37,39,41,43,45,47,49,51,53,55,57,59,61,-1,-1,-1,-1,-1,-1,-1,-1,-1,-1,-1,-1,-1,-1,-1,-1,-1,-1,-1,-1,-1,-1,-1,-1,-1,-1,-1,-1,-1,-1,-1,-1],"loss_changes":[7.860245E4,4.781469E4,1.1428953E4,9.428352E3,3.9365337E3,8.7073E3,3.9046016E3,3.8239165E3,5.7628047E3,4.5537188E3,1.1125254E3,6.669712E2,1.7640991E3,3.4301953E2,5.100885E3,1.2420935E3,9.4793896E2,1.5304141E3,1.503892E3,2.6597007E3,3.974148E2,9.3577246E2,5.194337E2,2.4279433E2,3.7652197E2,4.2310352E2,5.680306E2,3.592578E1,3.3362988E2,4.924486E3,4.3249805E2,0E0,0E0,0E0,0E0,0E0,0E0,0E0,0E0,0E0,0E0,0E0,0E0,0E0,0E0,0E0,0E0,0E0,0E0,0E0,0E0,0E0,0E0,0E0,0E0,0E0,0E0,0E0,0E0,0E0,0E0,0E0,0E0],"parents":[2147483647,0,0,1,1,2,2,3,3,4,4,5,5,6,6,7,7,8,8,9,9,10,10,11,11,12,12,13,13,14,14,15,15,16,16,17,17,18,18,19,19,20,20,21,21,22,22,23,23,24,24,25,25,26,26,27,27,28,28,29,29,30,30],"right_children":[2,4,6,8,10,12,14,16,18,20,22,24,26,28,30,32,34,36,38,40,42,44,46,48,50,52,54,56,58,60,62,-1,-1,-1,-1,-1,-1,-1,-1,-1,-1,-1,-1,-1,-1,-1,-1,-1,-1,-1,-1,-1,-1,-1,-1,-1,-1,-1,-1,-1,-1,-1,-1],"split_conditions":[7.1140704E0,5.6E2,3.91E2,-2.8E0,3E0,-4.6E0,-3.1E0,4.18E2,2.351085E0,6.79E2,3.21E2,3.39E2,1.2591267E1,-6.1E0,5.21E2,1.67E1,5.3E0,4.79E2,3.98E2,4.968903E0,7.26E2,5.88E2,3.6E0,-6.7E0,-7.4E0,1.62E1,1.62E1,-8.6E0,4.8E2,7E0,6.07E2,-1.5046772E-1,5.9396E-2,-2.1273554E-3,1.1923074E-1,-1.7551406E-1,-1.1874536E-1,-1.4124398E-1,3.409856E-2,-1.1110081E-1,7.641949E-2,6.5739356E-2,1.4434372E-1,4.9227353E-2,1.3837075E-1,-1.6359322E-1,6.625784E-2,3.6401063E-2,-1.6850361E-1,1.6044009E-1,7.46623E-2,-1.6248444E-1,-6.573711E-2,-5.7562925E-2,1.0371373E-1,1.810039E-1,1.688345E-1,1.1148085E-1,1.6446947E-1,-7.015974E-2,9.702415E-2,1.24271914E-1,1.6866207E-1],"split_indices":[8,3,3,5,4,5,5,3,14,3,0,3,8,5,3,4,4,3,3,8,3,3,12,5,5,4,4,5,3,4,3,0,0,0,0,0,0,0,0,0,0,0,0,0,0,0,0,0,0,0,0,0,0,0,0,0,0,0,0,0,0,0,0],"split_type":[0,0,0,0,0,0,0,0,0,0,0,0,0,0,0,0,0,0,0,0,0,0,0,0,0,0,0,0,0,0,0,0,0,0,0,0,0,0,0,0,0,0,0,0,0,0,0,0,0,0,0,0,0,0,0,0,0,0,0,0,0,0,0],"sum_hessian":[1.1614473E5,6.7350484E4,4.879424E4,4.855182E4,1.8798666E4,8.308602E3,4.0485637E4,5.685912E3,4.286591E4,7.9019746E3,1.0896691E4,3.5069817E3,4.801619E3,1.9984543E4,2.0501094E4,2.3073943E3,3.3785176E3,3.9676234E4,3.1896748E3,4.6071807E3,3.294794E3,1.0413956E4,4.8273535E2,3.22709E2,3.1842727E3,3.719608E3,1.0820115E3,1.3644364E4,6.340178E3,9.499185E3,1.1001909E4,1.8818529E3,4.2554147E2,1.2710656E3,2.107452E3,3.2530377E4,7.145858E3,8.054565E2,2.3842183E3,3.3111956E3,1.2959854E3,1.3347239E3,1.96007E3,1.7442399E3,8.669716E3,2.4151381E2,2.4122154E2,2.1806943E2,1.04639595E2,2.3139429E3,8.703299E2,3.0351868E3,6.844212E2,5.8658936E2,4.954221E2,8.524133E3,5.120231E3,2.319673E3,4.0205051E3,3.3558381E3,6.1433467E3,4.876881E3,6.125029E3],"tree_param":{"num_deleted":"0","num_feature":"15","num_nodes":"63","size_leaf_vector":"1"}},{"base_weights":[-3.535474E-4,-7.499952E-1,7.641331E-1,-1.1932977E0,5.5531555E-1,-1.1451618E-1,1.0702264E0,-1.2922515E0,4.6482766E-1,7.358344E-2,9.524437E-1,1.0001562E0,-9.133073E-1,7.359848E-1,1.348799E0,-2.9886484E-1,-1.3927897E0,-1.0743475E0,6.980652E-1,-6.310182E-1,9.058495E-1,-1.0311463E0,1.0041713E0,1.3359746E0,3.6556602E-1,-1.2054813E0,3.167479E-1,3.1580478E-1,1.2149507E0,1.1773096E0,1.4708145E0,-1.0101247E-1,8.3385155E-2,-1.616639E-1,-1.02126375E-1,-1.520861E-1,9.786172E-2,-3.0088952E-2,1.1500192E-1,5.2050777E-2,-1.10068806E-1,1.1308014E-1,-2.7870731E-2,-2.1700312E-1,6.0031615E-2,1.1899873E-1,-4.0035147E-2,3.7754156E-2,1.5319659E-1,-1.23685606E-1,6.820305E-2,-1.4586061E-1,1.8040596E-2,-9.12876E-2,8.35047E-2,1.0873416E-1,-5.153221E-2,1.5971676E-1,1.1448079E-1,1.5451235E-1,1.0244853E-1,-2.116359E-1,1.6341437E-1],"categories":[],"categories_nodes":[],"categories_segments":[],"categories_sizes":[],"default_left":[0,0,0,0,0,0,0,0,0,0,0,0,0,0,0,0,0,0,0,0,0,0,0,0,0,0,0,0,0,0,0,0,0,0,0,0,0,0,0,0,0,0,0,0,0,0,0,0,0,0,0,0,0,0,0,0,0,0,0,0,0,0,0],"id":3,"left_children":[1,3,5,7,9,11,13,15,17,19,21,23,25,27,29,31,33,35,37,39,41,43,45,47,49,51,53,55,57,59,61,-1,-1,-1,-1,-1,-1,-1,-1,-1,-1,-1,-1,-1,-1,-1,-1,-1,-1,-1,-1,-1,-1,-1,-1,-1,-1,-1,-1,-1,-1,-1,-1],"loss_changes":[6.474835E4,3.3009223E4,1.5044201E4,6.987508E3,2.7667163E3,1.2869579E4,3.8616758E3,4.0129922E3,8.6193463E2,3.833477E3,8.144165E2,1.2853853E3,3.026412E3,3.795291E3,4.716914E2,2.3716997E3,1.0965391E3,1.8407907E2,6.828486E2,1.4045962E3,3.9168726E2,2.9435733E2,7.1629004E2,1.7309717E2,7.702357E2,1.0108545E3,8.028511E2,5.2032285E3,3.6086035E2,5.126133E2,6.47207E1,0E0,0E0,0E0,0E0,0E0,0E0,0E0,0E0,0E0,0E0,0E0,0E0,0E0,0E0,0E0,0E0,0E0,0E0,0E0,0E0,0E0,0E0,0E0,0E0,0E0,0E0,0E0,0E0,0E0,0E0,0E0,0E0],"parents":[2147483647,0,0,1,1,2,2,3,3,4,4,5,5,6,6,7,7,8,8,9,9,10,10,11,11,12,12,13,13,14,14,15,15,16,16,17,17,18,18,19,19,20,20,21,21,22,22,23,23,24,24,25,25,26,26,27,27,28,28,29,29,30,30],"right_children":[2,4,6,8,10,12,14,16,18,20,22,24,26,28,30,32,34,36,38,40,42,44,46,48,50,52,54,56,58,60,62,-1,-1,-1,-1,-1,-1,-1,-1,-1,-1,-1,-1,-1,-1,-1,-1,-1,-1,-1,-1,-1,-1,-1,-1,-1,-1,-1,-1,-1,-1,-1,-1],"split_conditions":[6.1106462E0,5.73E2,4.12E2,2.721604E0,3E0,-4.1E0,1.0131634E1,-2.8E0,3.84E2,6.79E2,2.6E1,-7.4E0,1.2591267E1,5.54E2,1.409468E1,4.74E2,5.14E2,8.1E0,6.6E0,-1.6E0,1.3397057E0,5.2009616E0,3.21E2,3.39E2,3.44E2,2.23E1,1.2983239E0,-1.8E0,-2E0,-2.3E0,7E0,-1.0101247E-1,8.3385155E-2,-1.616639E-1,-1.02126375E-1,-1.520861E-1,9.786172E-2,-3.0088952E-2,1.1500192E-1,5.2050777E-2,-1.10068806E-1,1.1308014E-1,-2.7870731E-2,-2.1700312E-1,6.0031615E-2,1.1899873E-1,-4.0035147E-2,3.7754156E-2,1.5319659E-1,-1.23685606E-1,6.820305E-2,-1.4586061E-1,1.8040596E-2,-9.12876E-2,8.35047E-2,1.0873416E-1,-5.153221E-2,1.5971676E-1,1.1448079E-1,1.5451235E-1,1.0244853E-1,-2.116359E-1,1.6341437E-1],"split_indices":[8,3,3,14,4,5,8,5,3,3,0,5,8,3,8,3,3,12,4,5,9,8,0,3,3,4,14,5,5,5,0,0,0,0,0,0,0,0,0,0,0,0,0,0,0,0,0,0,0,0,0,0,0,0,0,0,0,0,0,0,0,0,0],"split_type":[0,0,0,0,0,0,0,0,0,0,0,0,0,0,0,0,0,0,0,0,0,0,0,0,0,0,0,0,0,0,0,0,0,0,0,0,0,0,0,0,0,0,0,0,0,0,0,0,0,0,0,0,0,0,0,0,0,0,0,0,0,0,0],"sum_hessian":[1.1297893E5,5.7043316E4,5.5935613E4,4.258195E4,1.4461367E4,1.4451837E4,4.1483773E4,4.0184062E4,2.3978867E3,6.5351533E3,7.926214E3,6.0329336E3,8.418903E3,1.885932E4,2.2624453E4,3.6935205E3,3.6490543E4,3.150712E2,2.0828154E3,3.5391384E3,2.996015E3,2.0096315E2,7.7252505E3,3.9444607E3,2.088473E3,6.80301E3,1.6158932E3,1.0047053E4,8.812269E3,9.409833E3,1.3214621E4,2.334787E3,1.3587334E3,3.2159037E4,4.331505E3,2.739431E2,4.112806E1,5.3861237E2,1.5442031E3,8.737053E2,2.665433E3,2.7297715E3,2.6624344E2,1.26422104E2,7.4541046E1,7.359399E3,3.6585165E2,1.6791028E2,3.7765503E3,3.0016605E2,1.7883068E3,6.302799E3,5.0021094E2,4.466931E2,1.1692001E3,5.4279473E3,4.619105E3,3.9668335E3,4.845435E3,5.100281E3,4.3095527E3,4.8609934E0,1.320976E4],"tree_param":{"num_deleted":"0","num_feature":"15","num_nodes":"63","size_leaf_vector":"1"}},{"base_weights":[-5.4467947E-4,-6.9266367E-1,7.024989E-1,-1.1872933E0,3.1614575E-1,2.3737771E-2,1.0429436E0,-1.2993588E0,-1.1185744E-1,2.250625E-2,9.6763724E-1,9.9639803E-1,-7.2301793E-1,7.7025294E-1,1.29264E0,-5.755913E-1,-1.3652468E0,-8.7026054E-1,3.3667588E-1,-4.0293744E-1,9.1017187E-1,1.0129963E0,-1.5980765E0,1.2844791E0,4.7008887E-1,-1.0836048E0,2.6641807E-1,1.1424772E0,4.111909E-1,1.1440626E0,1.3928753E0,-1.2136502E-1,3.293049E-3,-1.5277068E-1,-2.4060046E-2,-1.5464014E-1,2.4170037E-2,-7.167939E-2,9.965757E-2,9.845387E-2,-6.912099E-2,-1.9265196E-1,1.0526387E-1,7.323005E-2,1.3595998E-1,1.7978147E-1,-2.1751127E-1,3.3756103E-2,1.4626953E-1,-1.1188487E-1,7.1695186E-2,-1.3971658E-1,-4.5653142E-4,-7.972278E-2,6.2166497E-2,1.4426112E-1,1.0060903E-1,-2.676421E-2,1.0548681E-1,1.4539884E-1,9.916726E-2,-1.8683475E-1,1.5476023E-1],"categories":[],"categories_nodes":[],"categories_segments":[],"categories_sizes":[],"default_left":[0,0,0,0,0,0,0,0,0,0,0,0,0,0,0,0,0,0,0,0,0,0,0,0,0,0,0,0,0,0,0,0,0,0,0,0,0,0,0,0,0,0,0,0,0,0,0,0,0,0,0,0,0,0,0,0,0,0,0,0,0,0,0],"id":4,"left_children":[1,3,5,7,9,11,13,15,17,19,21,23,25,27,29,31,33,35,37,39,41,43,45,47,49,51,53,55,57,59,61,-1,-1,-1,-1,-1,-1,-1,-1,-1,-1,-1,-1,-1,-1,-1,-1,-1,-1,-1,-1,-1,-1,-1,-1,-1,-1,-1,-1,-1,-1,-1,-1],"loss_changes":[5.3181816E4,2.7482275E4,1.2529068E4,4.45375E3,3.4665005E3,1.3156147E4,2.4576406E3,1.5952344E3,1.187024E3,4.717896E3,6.568037E2,1.192126E3,3.6559653E3,2.3066328E3,2.790957E2,8.757458E2,3.8953906E2,7.3804974E2,1.2094834E3,2.3946565E3,4.1020874E2,4.132837E2,1.1738141E2,1.6537207E2,7.2418555E2,1.4195127E3,7.91919E2,3.1330664E2,3.090834E3,3.1469043E2,4.944336E1,0E0,0E0,0E0,0E0,0E0,0E0,0E0,0E0,0E0,0E0,0E0,0E0,0E0,0E0,0E0,0E0,0E0,0E0,0E0,0E0,0E0,0E0,0E0,0E0,0E0,0E0,0E0,0E0,0E0,0E0,0E0,0E0],"parents":[2147483647,0,0,1,1,2,2,3,3,4,4,5,5,6,6,7,7,8,8,9,9,10,10,11,11,12,12,13,13,14,14,15,15,16,16,17,17,18,18,19,19,20,20,21,21,22,22,23,23,24,24,25,25,26,26,27,27,28,28,29,29,30,30],"right_children":[2,4,6,8,10,12,14,16,18,20,22,24,26,28,30,32,34,36,38,40,42,44,46,48,50,52,54,56,58,60,62,-1,-1,-1,-1,-1,-1,-1,-1,-1,-1,-1,-1,-1,-1,-1,-1,-1,-1,-1,-1,-1,-1,-1,-1,-1,-1,-1,-1,-1,-1,-1,-1],"split_conditions":[6.1106462E0,5.32E2,4.33E2,2.1371117E0,4.1E0,-4.1E0,1.0337311E1,-2.8E0,4.15E2,6.79E2,3.43E2,-7.4E0,1.154123E1,-1.9E0,1.409468E1,4.21E2,2.23E1,1.46E1,6.6E0,-2.6E0,1.7E1,5.91E2,-9.3E0,3.39E2,3.44E2,1.67E1,1.0473826E0,-4.2E0,5.54E2,-3.3929262E-1,7E0,-1.2136502E-1,3.293049E-3,-1.5277068E-1,-2.4060046E-2,-1.5464014E-1,2.4170037E-2,-7.167939E-2,9.965757E-2,9.845387E-2,-6.912099E-2,-1.9265196E-1,1.0526387E-1,7.323005E-2,1.3595998E-1,1.7978147E-1,-2.1751127E-1,3.3756103E-2,1.4626953E-1,-1.1188487E-1,7.1695186E-2,-1.3971658E-1,-4.5653142E-4,-7.972278E-2,6.2166497E-2,1.4426112E-1,1.0060903E-1,-2.676421E-2,1.0548681E-1,1.4539884E-1,9.916726E-2,-1.8683475E-1,1.5476023E-1],"split_indices":[8,3,3,14,4,5,8,5,3,3,0,5,8,5,8,3,4,4,4,5,0,3,2,3,3,4,14,5,3,9,0,0,0,0,0,0,0,0,0,0,0,0,0,0,0,0,0,0,0,0,0,0,0,0,0,0,0,0,0,0,0,0,0],"split_type":[0,0,0,0,0,0,0,0,0,0,0,0,0,0,0,0,0,0,0,0,0,0,0,0,0,0,0,0,0,0,0,0,0,0,0,0,0,0,0,0,0,0,0,0,0,0,0,0,0,0,0,0,0,0,0,0,0,0,0,0,0,0,0],"sum_hessian":[1.0929295E5,5.5074387E4,5.421857E4,3.6954863E4,1.8119525E4,1.8110951E4,3.6107617E4,3.346721E4,3.487651E3,1.2490745E4,5.6287803E3,7.865582E3,1.024537E4,1.726107E4,1.8846547E4,2.7932793E3,3.0673932E4,1.2957649E3,2.191886E3,8.444148E3,4.046597E3,5.531593E3,9.718743E1,5.082293E3,2.7832888E3,7.508794E3,2.736576E3,8.474125E3,8.786945E3,7.597423E3,1.1249125E4,1.5049858E3,1.2882936E3,3.0381014E4,2.9291815E2,8.749743E2,4.207906E2,7.967669E2,1.395119E3,1.2288259E3,7.2153228E3,5.6888763E1,3.9897083E3,2.0753313E3,3.4562615E3,9.46397E0,8.772346E1,1.6711836E2,4.915175E3,2.9537195E2,2.4879167E3,6.460654E3,1.0481404E3,6.2830035E2,2.1082756E3,5.084622E3,3.389503E3,3.9764114E3,4.8105337E3,4.569837E3,3.027586E3,4.42819E0,1.1244696E4],"tree_param":{"num_deleted":"0","num_feature":"15","num_nodes":"63","size_leaf_vector":"1"}},{"base_weights":[-7.1032E-4,-5.2492476E-1,7.9739153E-1,-1.0657043E0,3.376022E-1,-5.2715623E-1,9.1167706E-1,2.7280933E-1,-1.1644483E0,1.2697854E-2,9.419937E-1,8.1052756E-1,-1.0500205E0,1.256485E0,6.5657485E-1,-7.573352E-1,6.789286E-1,-1.2508634E0,-1.9652963E-1,-5.9689254E-1,6.0912764E-1,9.832933E-1,-7.5018185E-1,9.023757E-1,-2.7675396E-1,-1.1985658E0,4.63961E-1,1.3348448E0,1.1079233E0,1.18050516E-1,1.0259352E0,-1.206266E-1,7.693239E-2,-9.001439E-2,9.7405925E-2,-1.4292921E-1,-3.4088716E-2,-1.298378E-1,9.582001E-3,1.0259067E-1,-8.889422E-2,1.2625071E-1,3.8374435E-2,9.2306435E-2,1.5049349E-1,-1.9117092E-1,5.2733313E-2,-1.7995715E-1,1.065231E-1,-1.4051916E-1,6.85063E-2,-2.0064941E-1,9.582609E-2,1.5361528E-1,1.4284512E-1,8.525053E-2,1.3623759E-1,-4.6998173E-2,7.833002E-2,8.4307685E-2,1.3664621E-1],"categories":[],"categories_nodes":[],"categories_segments":[],"categories_sizes":[],"default_left":[0,0,0,0,0,0,0,0,0,0,0,0,0,0,0,0,0,0,0,0,0,0,0,0,0,0,0,0,0,0,0,0,0,0,0,0,0,0,0,0,0,0,0,0,0,0,0,0,0,0,0,0,0,0,0,0,0,0,0,0,0],"id":5,"left_children":[1,3,5,7,9,11,13,15,17,19,21,23,25,27,29,31,33,35,37,39,41,43,45,47,-1,49,51,53,55,57,59,-1,-1,-1,-1,-1,-1,-1,-1,-1,-1,-1,-1,-1,-1,-1,-1,-1,-1,-1,-1,-1,-1,-1,-1,-1,-1,-1,-1,-1,-1],"loss_changes":[4.4034703E4,2.9631182E4,6.316742E3,5.160996E3,4.807338E3,2.319353E3,3.3779102E3,1.123133E3,3.041293E3,5.7896006E3,5.989077E2,2.8510303E2,5.36645E2,1.886582E2,4.391759E3,3.634767E2,5.7034546E2,1.1585859E3,8.2083813E2,2.4439487E3,1.1196182E3,4.7105518E2,2.4437257E2,1.3278601E2,0E0,2.6636475E2,1.95421E2,2.3371094E1,2.2827197E2,2.8587708E3,7.1471484E2,0E0,0E0,0E0,0E0,0E0,0E0,0E0,0E0,0E0,0E0,0E0,0E0,0E0,0E0,0E0,0E0,0E0,0E0,0E0,0E0,0E0,0E0,0E0,0E0,0E0,0E0,0E0,0E0,0E0,0E0],"parents":[2147483647,0,0,1,1,2,2,3,3,4,4,5,5,6,6,7,7,8,8,9,9,10,10,11,11,12,12,13,13,14,14,15,15,16,16,17,17,18,18,19,19,20,20,21,21,22,22,23,23,25,25,26,26,27,27,28,28,29,29,30,30],"right_children":[2,4,6,8,10,12,14,16,18,20,22,24,26,28,30,32,34,36,38,40,42,44,46,48,-1,50,52,54,56,58,60,-1,-1,-1,-1,-1,-1,-1,-1,-1,-1,-1,-1,-1,-1,-1,-1,-1,-1,-1,-1,-1,-1,-1,-1,-1,-1,-1,-1,-1,-1],"split_conditions":[7.462573E0,5.1E2,3.63E2,-3.9E0,4.2E0,-6.7E0,-4.4E0,3.89E2,2.3100212E0,6.26E2,3.43E2,5.8E0,2.73E1,-7.4E0,4.79E2,2.07E1,6.7467427E3,1.67E1,3.84E2,-3.2E0,-1.7E0,7.2E0,6.024948E0,3.09E2,-2.7675396E-1,1.8619614E1,9.070832E0,-1.09E1,4.33E2,1.154123E1,6.2E0,-1.206266E-1,7.693239E-2,-9.001439E-2,9.7405925E-2,-1.4292921E-1,-3.4088716E-2,-1.298378E-1,9.582001E-3,1.0259067E-1,-8.889422E-2,1.2625071E-1,3.8374435E-2,9.2306435E-2,1.5049349E-1,-1.9117092E-1,5.2733313E-2,-1.7995715E-1,1.065231E-1,-1.4051916E-1,6.85063E-2,-2.0064941E-1,9.582609E-2,1.5361528E-1,1.4284512E-1,8.525053E-2,1.3623759E-1,-4.6998173E-2,7.833002E-2,8.4307685E-2,1.3664621E-1],"split_indices":[8,3,3,5,4,5,5,3,14,3,0,6,4,5,3,4,11,4,3,5,5,4,8,3,0,8,8,5,3,8,4,0,0,0,0,0,0,0,0,0,0,0,0,0,0,0,0,0,0,0,0,0,0,0,0,0,0,0,0,0,0],"split_type":[0,0,0,0,0,0,0,0,0,0,0,0,0,0,0,0,0,0,0,0,0,0,0,0,0,0,0,0,0,0,0,0,0,0,0,0,0,0,0,0,0,0,0,0,0,0,0,0,0,0,0,0,0,0,0,0,0,0,0,0,0],"sum_hessian":[1.0524937E5,6.3524883E4,4.1724484E4,3.9044727E4,2.4480154E4,3.3138591E3,3.8410625E4,2.68237E3,3.636236E4,1.5921964E4,8.558191E3,9.3112915E2,2.38273E3,1.6331837E4,2.2078787E4,7.582249E2,1.9241451E3,3.338176E4,2.9805947E3,7.8741074E3,8.047856E3,8.354703E3,2.0348782E2,9.066505E2,2.4478657E1,2.1700247E3,2.1270523E2,1.0686947E4,5.6448896E3,8.982986E3,1.3095802E4,6.18104E2,1.401209E2,2.2596017E2,1.6981849E3,3.212903E4,1.2527346E3,6.7051215E2,2.3100825E3,9.3053345E2,6.943574E3,2.6766274E3,5.3712285E3,5.9391797E3,2.4155234E3,1.13240715E2,9.024711E1,1.9520178E1,8.871303E2,2.0926792E3,7.7345474E1,3.127455E1,1.8143068E2,5.2677646E3,5.4191826E3,1.4697662E3,4.1751235E3,4.6752944E3,4.307692E3,5.6987583E3,7.3970435E3],"tree_param":{"num_deleted":"0","num_feature":"15","num_nodes":"61","size_leaf_vector":"1"}},{"base_weights":[-8.851224E-4,-6.295693E-1,5.811246E-1,-9.971377E-1,4.2663246E-1,-4.5994213E-1,7.6669556E-1,-1.1152234E0,1.0141355E-1,3.292625E-3,7.61664E-1,6.149517E-1,-9.721639E-1,1.1771102E0,5.15439E-1,-2.738539E-1,-1.200914E0,-5.7722485E-1,5.3643316E-1,-5.234371E-1,7.5715387E-1,8.14502E-1,-7.8272516E-1,1.0793915E0,1.850059E-1,-1.0614402E0,6.20158E-1,1.2541792E0,9.8566943E-1,5.4672003E-2,9.343056E-1,-8.5449435E-2,5.9417065E-2,1.572104E-2,-1.3558066E-1,-1.2962285E-1,5.43594E-2,-1.504426E-2,1.1160785E-1,4.5903694E-2,-9.391825E-2,9.265978E-2,-1.0693692E-1,-1.0029448E-1,9.60141E-2,-1.8265948E-1,8.342356E-2,-3.2392642E-1,1.22328274E-1,-5.912667E-2,7.0727065E-2,-1.2673756E-1,2.4797278E-2,-1.8603887E-1,1.0489602E-1,1.3251458E-1,1.473377E-1,4.2899325E-2,1.2244383E-1,-8.287122E-2,6.868107E-2,7.689727E-2,1.3008898E-1],"categories":[],"categories_nodes":[],"categories_segments":[],"categories_sizes":[],"default_left":[0,0,0,0,0,0,0,0,0,0,0,0,0,0,0,0,0,0,0,0,0,0,0,0,0,0,0,0,0,0,0,0,0,0,0,0,0,0,0,0,0,0,0,0,0,0,0,0,0,0,0,0,0,0,0,0,0,0,0,0,0,0,0],"id":6,"left_children":[1,3,5,7,9,11,13,15,17,19,21,23,25,27,29,31,33,35,37,39,41,43,45,47,49,51,53,55,57,59,61,-1,-1,-1,-1,-1,-1,-1,-1,-1,-1,-1,-1,-1,-1,-1,-1,-1,-1,-1,-1,-1,-1,-1,-1,-1,-1,-1,-1,-1,-1,-1,-1],"loss_changes":[3.700821E4,1.8876705E4,1.014699E4,4.679176E3,1.7804424E3,4.375668E3,4.5960234E3,2.3478047E3,1.0341154E3,2.202894E3,5.724636E2,5.1202155E2,7.6575586E2,2.4849219E2,5.336554E3,1.209025E3,8.15E2,8.627577E2,6.728718E2,9.8774493E2,3.0554163E2,5.8857324E2,3.0880405E2,1.14926025E2,4.3300146E2,5.2635596E2,2.1518958E2,5.170703E1,3.4173193E2,5.9519844E3,8.306455E2,0E0,0E0,0E0,0E0,0E0,0E0,0E0,0E0,0E0,0E0,0E0,0E0,0E0,0E0,0E0,0E0,0E0,0E0,0E0,0E0,0E0,0E0,0E0,0E0,0E0,0E0,0E0,0E0,0E0,0E0,0E0,0E0],"parents":[2147483647,0,0,1,1,2,2,3,3,4,4,5,5,6,6,7,7,8,8,9,9,10,10,11,11,12,12,13,13,14,14,15,15,16,16,17,17,18,18,19,19,20,20,21,21,22,22,23,23,24,24,25,25,26,26,27,27,28,28,29,29,30,30],"right_children":[2,4,6,8,10,12,14,16,18,20,22,24,26,28,30,32,34,36,38,40,42,44,46,48,50,52,54,56,58,60,62,-1,-1,-1,-1,-1,-1,-1,-1,-1,-1,-1,-1,-1,-1,-1,-1,-1,-1,-1,-1,-1,-1,-1,-1,-1,-1,-1,-1,-1,-1,-1,-1],"split_conditions":[5.859181E0,5.77E2,3.82E2,2.2385328E0,2.9E0,-4.6E0,-4.2E0,-2.8E0,4.39E2,6.9E2,3.33E2,-8.6E0,1.6903845E1,-6.1E0,5.14E2,4.72E2,-6.1E0,1.46E1,6.6E0,-1.6E0,2.1730838E0,2.6E1,4.1E0,2.9E0,1.14E1,2.73E1,1.1591977E0,4.95E2,4.29E2,7.1E0,5.6E0,-8.5449435E-2,5.9417065E-2,1.572104E-2,-1.3558066E-1,-1.2962285E-1,5.43594E-2,-1.504426E-2,1.1160785E-1,4.5903694E-2,-9.391825E-2,9.265978E-2,-1.0693692E-1,-1.0029448E-1,9.60141E-2,-1.8265948E-1,8.342356E-2,-3.2392642E-1,1.22328274E-1,-5.912667E-2,7.0727065E-2,-1.2673756E-1,2.4797278E-2,-1.8603887E-1,1.0489602E-1,1.3251458E-1,1.473377E-1,4.2899325E-2,1.2244383E-1,-8.287122E-2,6.868107E-2,7.689727E-2,1.3008898E-1],"split_indices":[8,3,3,14,4,5,5,5,3,3,0,5,8,5,3,3,2,4,4,5,9,0,12,4,4,4,14,3,3,4,4,0,0,0,0,0,0,0,0,0,0,0,0,0,0,0,0,0,0,0,0,0,0,0,0,0,0,0,0,0,0,0,0],"split_type":[0,0,0,0,0,0,0,0,0,0,0,0,0,0,0,0,0,0,0,0,0,0,0,0,0,0,0,0,0,0,0,0,0,0,0,0,0,0,0,0,0,0,0,0,0,0,0,0,0,0,0,0,0,0,0,0,0,0,0,0,0,0,0],"sum_hessian":[1.0114089E5,4.862082E4,5.2520066E4,3.606864E4,1.2552181E4,7.945235E3,4.4574832E4,3.2567838E4,3.500803E3,5.545719E3,7.0064614E3,2.5641606E3,5.381074E3,1.6925012E4,2.764982E4,3.0107205E3,2.9557117E4,1.3673639E3,2.133439E3,3.2648467E3,2.2808723E3,6.775137E3,2.3132442E2,1.2319081E3,1.3322526E3,5.095708E3,2.853663E2,1.206315E4,4.861861E3,1.3166914E4,1.4482906E4,1.8666272E3,1.1440931E3,4.4515662E2,2.911196E4,8.8012604E2,4.872378E2,8.7730005E2,1.256139E3,8.3624976E2,2.428597E3,2.18291E3,9.7962456E1,1.9293962E2,6.5821973E3,1.4801242E2,8.3312004E1,6.2247963E0,1.2256832E3,5.1487695E2,8.173756E2,4.795934E3,2.997738E2,3.4852787E1,2.505135E2,6.6206885E3,5.442462E3,7.973895E2,4.0644714E3,5.439659E3,7.727255E3,7.1849126E3,7.2979937E3],"tree_param":{"num_deleted":"0","num_feature":"15","num_nodes":"63","size_leaf_vector":"1"}},{"base_weights":[-1.0538882E-3,-4.0005818E-1,7.99572E-1,-9.8077273E-1,2.5536305E-1,-2.760167E-1,8.828405E-1,2.3010927E-1,-1.0769967E0,-6.231198E-2,8.3661264E-1,7.2455144E-1,-7.8410107E-1,1.1136832E0,6.2123376E-1,-7.146753E-1,4.720243E-1,-1.1591634E0,9.6413136E-2,-6.9173026E-1,4.7305238E-1,1.0831512E0,6.1890024E-1,8.4895825E-1,-1.6267977E0,-9.803644E-1,6.2203807E-1,1.213155E0,9.492329E-1,-7.0239164E-2,8.6720276E-1,-1.3234712E-1,7.2289556E-2,-1.5536276E-2,9.860474E-2,-1.3653481E-1,-8.09175E-2,-9.970638E-2,1.3625374E-1,1.1681485E-1,-9.644068E-2,9.6084125E-2,1.9453477E-2,1.2295597E-1,-3.452183E-2,4.1997522E-2,1.22521065E-1,-2.4246137E-1,9.890053E-2,1.3130632E-1,-2.527218E-1,-1.5007047E-1,-5.115624E-2,-2.1333222E-1,9.144703E-2,1.385956E-1,1.2304321E-1,7.639067E-2,1.2139589E-1,-4.379471E-2,8.656905E-2,6.8814434E-2,1.2478059E-1],"categories":[],"categories_nodes":[],"categories_segments":[],"categories_sizes":[],"default_left":[0,0,0,0,0,0,0,0,0,0,0,0,0,0,0,0,0,0,0,0,0,0,0,0,0,0,0,0,0,0,0,0,0,0,0,0,0,0,0,0,0,0,0,0,0,0,0,0,0,0,0,0,0,0,0,0,0,0,0,0,0,0,0],"id":7,"left_children":[1,3,5,7,9,11,13,15,17,19,21,23,25,27,29,31,33,35,37,39,41,43,45,47,49,51,53,55,57,59,61,-1,-1,-1,-1,-1,-1,-1,-1,-1,-1,-1,-1,-1,-1,-1,-1,-1,-1,-1,-1,-1,-1,-1,-1,-1,-1,-1,-1,-1,-1,-1,-1],"loss_changes":[3.0969777E4,2.4626387E4,2.8881836E3,3.9974453E3,5.6126865E3,1.1788184E3,1.8066777E3,5.777413E2,3.06425E3,6.6235566E3,5.7589844E2,2.29863E2,4.2495123E2,2.589043E2,2.3865566E3,3.3703433E2,5.127074E2,9.0471875E2,2.3420273E3,2.7915972E3,1.2416028E3,1.7278613E2,6.6521436E2,9.66214E1,7.499811E1,2.5994092E2,9.858376E1,3.53584E1,2.2530469E2,1.01561707E3,6.568457E2,0E0,0E0,0E0,0E0,0E0,0E0,0E0,0E0,0E0,0E0,0E0,0E0,0E0,0E0,0E0,0E0,0E0,0E0,0E0,0E0,0E0,0E0,0E0,0E0,0E0,0E0,0E0,0E0,0E0,0E0,0E0,0E0],"parents":[2147483647,0,0,1,1,2,2,3,3,4,4,5,5,6,6,7,7,8,8,9,9,10,10,11,11,12,12,13,13,14,14,15,15,16,16,17,17,18,18,19,19,20,20,21,21,22,22,23,23,24,24,25,25,26,26,27,27,28,28,29,29,30,30],"right_children":[2,4,6,8,10,12,14,16,18,20,22,24,26,28,30,32,34,36,38,40,42,44,46,48,50,52,54,56,58,60,62,-1,-1,-1,-1,-1,-1,-1,-1,-1,-1,-1,-1,-1,-1,-1,-1,-1,-1,-1,-1,-1,-1,-1,-1,-1,-1,-1,-1,-1,-1,-1,-1],"split_conditions":[8.488816E0,4.79E2,3.63E2,-4.2E0,4.5E0,-6.7E0,-2.5E0,3.65E2,1.67E1,6.03E2,-1.5E0,5.1E0,2.73E1,-6.7E0,4.41E2,2.07E1,8E0,1.7466812E0,3.81E2,-4.2E0,-1.1E0,3.43E2,6.12E2,8.8260975E0,-1.1071488E0,3.49E2,3.24E2,-8.6E0,4.54E2,1.569777E1,1.30268955E1,-1.3234712E-1,7.2289556E-2,-1.5536276E-2,9.860474E-2,-1.3653481E-1,-8.09175E-2,-9.970638E-2,1.3625374E-1,1.1681485E-1,-9.644068E-2,9.6084125E-2,1.9453477E-2,1.2295597E-1,-3.452183E-2,4.1997522E-2,1.22521065E-1,-2.4246137E-1,9.890053E-2,1.3130632E-1,-2.527218E-1,-1.5007047E-1,-5.115624E-2,-2.1333222E-1,9.144703E-2,1.385956E-1,1.2304321E-1,7.639067E-2,1.2139589E-1,-4.379471E-2,8.656905E-2,6.8814434E-2,1.2478059E-1],"split_indices":[8,3,3,5,4,5,5,3,4,3,5,6,4,5,3,4,4,14,3,5,5,0,3,8,9,3,3,5,3,8,8,0,0,0,0,0,0,0,0,0,0,0,0,0,0,0,0,0,0,0,0,0,0,0,0,0,0,0,0,0,0,0,0],"split_type":[0,0,0,0,0,0,0,0,0,0,0,0,0,0,0,0,0,0,0,0,0,0,0,0,0,0,0,0,0,0,0,0,0,0,0,0,0,0,0,0,0,0,0,0,0,0,0,0,0,0,0,0,0,0,0,0,0,0,0,0,0,0,0],"sum_hessian":[9.694422E4,6.4700316E4,3.2243904E4,3.4305E4,3.0395318E4,2.3166882E3,2.9927217E4,2.5252952E3,3.1779703E4,1.9654357E4,1.0740961E4,7.8007135E2,1.536617E3,1.589668E4,1.4030536E4,5.143965E2,2.0108987E3,2.9700006E4,2.0796963E3,9.033519E3,1.0620838E4,5.035154E3,5.7058076E3,7.414796E2,3.859176E1,1.3486768E3,1.8794016E2,9.9012705E3,5.9954097E3,3.6815645E3,1.0348972E4,3.8121857E2,1.3317789E2,8.1438196E2,1.1965167E3,2.549702E4,4.2029873E3,1.106694E3,9.7300244E2,8.3228503E2,8.201234E3,4.580574E3,6.040264E3,4.9481895E3,8.6964294E1,3.8150374E3,1.8907704E3,9.438863E0,7.320408E2,7.096173E0,3.1495586E1,7.8530634E2,5.633704E2,1.3186857E1,1.747533E2,7.387684E3,2.5135864E3,2.1376416E3,3.8577678E3,2.6653389E3,1.0162255E3,5.2757104E3,5.073261E3],"tree_param":{"num_deleted":"0","num_feature":"15","num_nodes":"63","size_leaf_vector":"1"}},{"base_weights":[-1.2153303E-3,-6.298085E-1,4.4794515E-1,-9.503368E-1,2.848758E-1,-1.6794416E-1,7.3592037E-1,-1.0620942E0,9.813902E-2,5.760253E-2,8.890996E-1,8.6581504E-1,-5.954849E-1,1.0265381E0,4.845407E-1,-1.0841845E0,6.082182E-1,-4.8884392E-1,5.2331287E-1,-2.5043043E-1,6.087233E-1,-6.508433E-1,9.165737E-1,-2.3103026E-1,9.3241334E-1,-8.3609116E-1,3.4922013E-1,1.1612756E0,8.633681E-1,2.0480417E-1,9.379035E-1,-1.9910696E-3,-1.2408216E-1,1.5013817E-1,-1.1119131E-1,-1.2157037E-1,4.069347E-2,1.2222016E-2,1.0559714E-1,-9.315082E-2,2.9123738E-2,-9.224442E-2,7.889525E-2,1.3961835E-1,-2.1647076E-1,1.0489203E-1,-4.332246E-2,-1.9199228E-1,2.2348193E-2,1.2471406E-1,7.272657E-2,-1.0817271E-1,4.262758E-2,-8.615316E-2,8.972137E-2,1.18140474E-1,1.3543427E-1,7.111791E-2,1.228085E-1,-5.3831156E-2,8.866136E-2,-1.7984644E-1,1.06051736E-1],"categories":[],"categories_nodes":[],"categories_segments":[],"categories_sizes":[],"default_left":[0,0,0,0,0,0,0,0,0,0,0,0,0,0,0,0,0,0,0,0,0,0,0,0,0,0,0,0,0,0,0,0,0,0,0,0,0,0,0,0,0,0,0,0,0,0,0,0,0,0,0,0,0,0,0,0,0,0,0,0,0,0,0],"id":8,"left_children":[1,3,5,7,9,11,13,15,17,19,21,23,25,27,29,31,33,35,37,39,41,43,45,47,49,51,53,55,57,59,61,-1,-1,-1,-1,-1,-1,-1,-1,-1,-1,-1,-1,-1,-1,-1,-1,-1,-1,-1,-1,-1,-1,-1,-1,-1,-1,-1,-1,-1,-1,-1,-1],"loss_changes":[2.6210889E4,1.1343331E4,9.60338E3,3.3571758E3,1.3787344E3,7.625341E3,2.6948496E3,9.5595703E2,6.89214E2,1.2389357E3,1.1670288E2,3.6895068E2,2.7744888E3,3.751836E2,2.508942E3,9.174199E2,4.071093E2,6.0220795E2,2.8312006E2,1.4136986E3,3.8500964E2,1.23197876E2,1.0045093E2,1.8809483E2,2.514331E2,1.6434937E3,1.2809464E3,5.2158203E1,4.182627E2,5.013515E3,3.3984375E2,0E0,0E0,0E0,0E0,0E0,0E0,0E0,0E0,0E0,0E0,0E0,0E0,0E0,0E0,0E0,0E0,0E0,0E0,0E0,0E0,0E0,0E0,0E0,0E0,0E0,0E0,0E0,0E0,0E0,0E0,0E0,0E0],"parents":[2147483647,0,0,1,1,2,2,3,3,4,4,5,5,6,6,7,7,8,8,9,9,10,10,11,11,12,12,13,13,14,14,15,15,16,16,17,17,18,18,19,19,20,20,21,21,22,22,23,23,24,24,25,25,26,26,27,27,28,28,29,29,30,30],"right_children":[2,4,6,8,10,12,14,16,18,20,22,24,26,28,30,32,34,36,38,40,42,44,46,48,50,52,54,56,58,60,62,-1,-1,-1,-1,-1,-1,-1,-1,-1,-1,-1,-1,-1,-1,-1,-1,-1,-1,-1,-1,-1,-1,-1,-1,-1,-1,-1,-1,-1,-1,-1,-1],"split_conditions":[5.2009616E0,5.8E2,4.26E2,2.2746992E0,1.8708626E0,-5.6E0,-2.3E0,6.7E0,4.47E2,6.79E2,1.7E1,3.4E2,1.62E1,-5.3E0,5.91E2,-5.4E0,-8E-1,1.32E1,7.1E0,2.9E0,6E1,-6.1E0,3.44E2,8.208138E3,-8.6E0,8.5E0,3.56E2,4.95E2,5.54E2,6.7E0,1.4E1,-1.9910696E-3,-1.2408216E-1,1.5013817E-1,-1.1119131E-1,-1.2157037E-1,4.069347E-2,1.2222016E-2,1.0559714E-1,-9.315082E-2,2.9123738E-2,-9.224442E-2,7.889525E-2,1.3961835E-1,-2.1647076E-1,1.0489203E-1,-4.332246E-2,-1.9199228E-1,2.2348193E-2,1.2471406E-1,7.272657E-2,-1.0817271E-1,4.262758E-2,-8.615316E-2,8.972137E-2,1.18140474E-1,1.3543427E-1,7.111791E-2,1.228085E-1,-5.3831156E-2,8.866136E-2,-1.7984644E-1,1.06051736E-1],"split_indices":[8,3,3,14,14,5,5,2,3,3,0,3,4,5,3,2,5,4,4,4,0,2,0,11,5,12,3,3,3,4,0,0,0,0,0,0,0,0,0,0,0,0,0,0,0,0,0,0,0,0,0,0,0,0,0,0,0,0,0,0,0,0,0],"split_type":[0,0,0,0,0,0,0,0,0,0,0,0,0,0,0,0,0,0,0,0,0,0,0,0,0,0,0,0,0,0,0,0,0,0,0,0,0,0,0,0,0,0,0,0,0,0,0,0,0,0,0,0,0,0,0,0,0,0,0,0,0,0,0],"sum_hessian":[9.283275E4,3.8688453E4,5.4144297E4,2.8649064E4,1.003939E4,1.7250744E4,3.689355E4,2.588948E4,2.7595828E3,7.2961167E3,2.7432727E3,5.0468477E3,1.2203897E4,1.7109885E4,1.9783668E4,2.5551902E4,3.3757867E2,1.1591473E3,1.6004355E3,4.680585E3,2.6155317E3,4.7687195E1,2.6955854E3,2.8875223E2,4.758095E3,9.726721E3,2.4771768E3,9.368086E3,7.7417983E3,1.2235501E4,7.548167E3,7.822911E2,2.4769611E4,2.309539E2,1.06624756E2,6.7815717E2,4.8099017E2,8.149438E2,7.8549176E2,2.1786199E3,2.5019653E3,1.7263747E2,2.4428943E3,1.9327736E1,2.8359457E1,2.6385247E3,5.706087E1,6.3982113E1,2.2477013E2,2.814502E3,1.9435933E3,8.735746E3,9.909741E2,7.175377E2,1.759639E3,3.5459756E3,5.82211E3,4.0419414E3,3.6998572E3,5.6611772E3,6.5743237E3,5.0714176E1,7.4974526E3],"tree_param":{"num_deleted":"0","num_feature":"15","num_nodes":"63","size_leaf_vector":"1"}},{"base_weights":[-1.2629979E-3,-3.531888E-1,7.09447E-1,-8.895353E-1,2.1781002E-1,1.7237881E-1,8.501468E-1,-1.0785027E0,-3.141745E-1,-2.1981526E-2,8.3942515E-1,7.350385E-1,-4.6054715E-1,6.4750147E-1,1.0749326E0,-1.7100917E-1,-1.1288842E0,-1.0050087E0,5.5047005E-1,-6.035095E-1,3.709139E-1,8.9849716E-1,7.3191635E-2,-2.651972E-1,8.218189E-1,-6.433542E-1,8.91347E-1,8.782893E-1,3.119458E-1,1.140802E0,8.9408785E-1,5.2304517E-2,-6.0718264E-2,-1.275543E-1,-3.539362E-2,3.2737944E-2,-1.2101984E-1,9.8195575E-2,5.547815E-3,3.1041645E-2,-9.672026E-2,9.859146E-2,1.9994976E-2,1.1277902E-1,6.1700936E-2,-7.744457E-2,9.702632E-2,-7.922124E-2,1.2819426E-1,9.7943604E-2,-6.1343394E-2,-1.2679636E-1,-3.716241E-2,1.2873994E-1,-9.596316E-2,2.202808E-2,1.0505781E-1,-3.713545E-2,7.003747E-2,1.0341562E-1,1.3051467E-1,6.265936E-2,1.2392032E-1],"categories":[],"categories_nodes":[],"categories_segments":[],"categories_sizes":[],"default_left":[0,0,0,0,0,0,0,0,0,0,0,0,0,0,0,0,0,0,0,0,0,0,0,0,0,0,0,0,0,0,0,0,0,0,0,0,0,0,0,0,0,0,0,0,0,0,0,0,0,0,0,0,0,0,0,0,0,0,0,0,0,0,0],"id":9,"left_children":[1,3,5,7,9,11,13,15,17,19,21,23,25,27,29,31,33,35,37,39,41,43,45,47,49,51,53,55,57,59,61,-1,-1,-1,-1,-1,-1,-1,-1,-1,-1,-1,-1,-1,-1,-1,-1,-1,-1,-1,-1,-1,-1,-1,-1,-1,-1,-1,-1,-1,-1,-1,-1],"loss_changes":[2.2217613E4,1.8194793E4,2.222876E3,3.3304277E3,4.289371E3,2.175647E3,1.061168E3,1.0541562E3,4.525527E3,4.7450205E3,3.6251562E2,2.8093567E2,7.1115796E2,9.493096E2,1.3061523E2,2.9343396E2,3.5806055E2,4.6707324E2,5.6277185E2,1.9810527E3,1.2230065E3,2.9892578E2,3.552891E2,1.6575075E2,2.4819421E2,3.8964636E2,1.6265228E2,3.3652148E2,1.0311025E3,5.817578E1,2.1588086E2,0E0,0E0,0E0,0E0,0E0,0E0,0E0,0E0,0E0,0E0,0E0,0E0,0E0,0E0,0E0,0E0,0E0,0E0,0E0,0E0,0E0,0E0,0E0,0E0,0E0,0E0,0E0,0E0,0E0,0E0,0E0,0E0],"parents":[2147483647,0,0,1,1,2,2,3,3,4,4,5,5,6,6,7,7,8,8,9,9,10,10,11,11,12,12,13,13,14,14,15,15,16,16,17,17,18,18,19,19,20,20,21,21,22,22,23,23,24,24,25,25,26,26,27,27,28,28,29,29,30,30],"right_children":[2,4,6,8,10,12,14,16,18,20,22,24,26,28,30,32,34,36,38,40,42,44,46,48,50,52,54,56,58,60,62,-1,-1,-1,-1,-1,-1,-1,-1,-1,-1,-1,-1,-1,-1,-1,-1,-1,-1,-1,-1,-1,-1,-1,-1,-1,-1,-1,-1,-1,-1,-1,-1],"split_conditions":[8.488816E0,4.79E2,4.01E2,9.7E0,5.1E0,-3.5E0,1.3529597E1,-4.2E0,3.77E2,5.88E2,3.16E2,3.4E2,1.8619614E1,-9E-1,3.2175055E-1,6E0,2.9519854E0,-5.3E0,-3.9060703E-1,-2.1E0,-2E0,7E-1,7.9E0,3.31E1,3.2E2,1.0709609E0,5.7E0,1.306018E3,4.76E2,-2.5040438E0,5.19E2,5.2304517E-2,-6.0718264E-2,-1.275543E-1,-3.539362E-2,3.2737944E-2,-1.2101984E-1,9.8195575E-2,5.547815E-3,3.1041645E-2,-9.672026E-2,9.859146E-2,1.9994976E-2,1.1277902E-1,6.1700936E-2,-7.744457E-2,9.702632E-2,-7.922124E-2,1.2819426E-1,9.7943604E-2,-6.1343394E-2,-1.2679636E-1,-3.716241E-2,1.2873994E-1,-9.596316E-2,2.202808E-2,1.0505781E-1,-3.713545E-2,7.003747E-2,1.0341562E-1,1.3051467E-1,6.265936E-2,1.2392032E-1],"split_indices":[8,3,3,4,4,5,8,5,3,3,0,3,8,5,9,1,14,5,9,5,5,5,4,4,0,14,5,11,3,9,3,0,0,0,0,0,0,0,0,0,0,0,0,0,0,0,0,0,0,0,0,0,0,0,0,0,0,0,0,0,0,0,0],"split_type":[0,0,0,0,0,0,0,0,0,0,0,0,0,0,0,0,0,0,0,0,0,0,0,0,0,0,0,0,0,0,0,0,0,0,0,0,0,0,0,0,0,0,0,0,0,0,0,0,0,0,0,0,0,0,0,0,0,0,0,0,0,0,0],"sum_hessian":[8.882681E4,5.9409312E4,2.9417504E4,3.0633922E4,2.877539E4,6.107325E3,2.3310178E4,2.3059537E4,7.5743833E3,2.0765822E4,8.009569E3,3.2330452E3,2.87428E3,1.226085E4,1.1049328E4,1.2130981E3,2.184644E4,4.210285E3,3.3640981E3,8.372732E3,1.239309E4,7.436116E3,5.7345276E2,2.5794138E2,2.9751038E3,2.5323696E3,3.4191025E2,7.263534E3,4.997316E3,8.0954087E3,2.9539194E3,4.478707E2,7.652274E2,2.1313111E4,5.33328E2,2.5899384E2,3.951291E3,2.0167535E3,1.3473446E3,1.9483585E3,6.424374E3,3.3381191E3,9.054971E3,5.5353975E3,1.9007188E3,2.9226984E2,2.811829E2,1.9640771E2,6.1533665E1,2.8499011E3,1.25202675E2,9.6660785E2,1.5657618E3,2.968601E2,4.5050137E1,6.6238745E2,6.6011465E3,1.6511694E3,3.3461465E3,1.1647334E3,6.9306753E3,1.1912959E3,1.7626234E3],"tree_param":{"num_deleted":"0","num_feature":"15","num_nodes":"63","size_leaf_vector":"1"}},{"base_weights":[-1.528359E-3,-5.662445E-1,3.9104125E-1,-9.593591E-1,4.8505094E-2,-6.192475E-2,7.061795E-1,-1.027834E0,2.966639E-1,-1.8435968E-1,7.021494E-1,7.4644095E-1,-4.2560437E-1,4.61772E-1,9.3806535E-1,-1.0496687E0,3.6785707E-1,-8.534956E-2,9.383727E-1,-4.1357008E-1,5.2294564E-1,-1.0191238E0,7.3532975E-1,9.620394E-1,3.689727E-1,-7.253524E-1,2.3443069E-1,-1.3135855E-2,8.150951E-1,1.0496953E0,7.8846437E-1,-5.0882354E-2,-1.2082872E-1,-8.869351E-2,1.6112794E-1,-1.9110297E-1,1.5545662E-2,1.1416201E-1,-2.003936E-1,-9.239066E-2,1.5768273E-2,-2.4702887E-1,6.371305E-2,8.519175E-2,-2.0318942E-1,8.58662E-2,-6.59075E-2,3.9963048E-2,1.1364425E-1,3.415745E-3,8.214806E-2,-1.04312986E-1,2.2070284E-4,-9.114024E-2,6.3803285E-2,9.876674E-2,-4.6242423E-2,1.1851963E-1,7.229758E-2,1.1782016E-1,1.370449E-2,6.696016E-2,1.1486717E-1],"categories":[],"categories_nodes":[],"categories_segments":[],"categories_sizes":[],"default_left":[0,0,0,0,0,0,0,0,0,0,0,0,0,0,0,0,0,0,0,0,0,0,0,0,0,0,0,0,0,0,0,0,0,0,0,0,0,0,0,0,0,0,0,0,0,0,0,0,0,0,0,0,0,0,0,0,0,0,0,0,0,0,0],"id":10,"left_children":[1,3,5,7,9,11,13,15,17,19,21,23,25,27,29,31,33,35,37,39,41,43,45,47,49,51,53,55,57,59,61,-1,-1,-1,-1,-1,-1,-1,-1,-1,-1,-1,-1,-1,-1,-1,-1,-1,-1,-1,-1,-1,-1,-1,-1,-1,-1,-1,-1,-1,-1,-1,-1],"loss_changes":[1.8838697E4,8.421685E3,7.155864E3,1.8284297E3,2.0691843E3,6.0470376E3,1.6750029E3,6.146582E2,2.6965546E2,1.6252432E3,2.0468958E2,5.190642E2,2.8068923E3,2.4153594E3,2.5249121E2,4.5573047E2,3.947418E2,2.5481516E2,1.0333679E2,1.7617303E3,3.4551746E2,9.991278E1,1.7854187E2,1.507002E2,2.91386E2,1.5214316E3,1.5925095E3,2.237773E3,3.4080957E2,9.435742E1,2.9535425E2,0E0,0E0,0E0,0E0,0E0,0E0,0E0,0E0,0E0,0E0,0E0,0E0,0E0,0E0,0E0,0E0,0E0,0E0,0E0,0E0,0E0,0E0,0E0,0E0,0E0,0E0,0E0,0E0,0E0,0E0,0E0,0E0],"parents":[2147483647,0,0,1,1,2,2,3,3,4,4,5,5,6,6,7,7,8,8,9,9,10,10,11,11,12,12,13,13,14,14,15,15,16,16,17,17,18,18,19,19,20,20,21,21,22,22,23,23,24,24,25,25,26,26,27,27,28,28,29,29,30,30],"right_children":[2,4,6,8,10,12,14,16,18,20,22,24,26,28,30,32,34,36,38,40,42,44,46,48,50,52,54,56,58,60,62,-1,-1,-1,-1,-1,-1,-1,-1,-1,-1,-1,-1,-1,-1,-1,-1,-1,-1,-1,-1,-1,-1,-1,-1,-1,-1,-1,-1,-1,-1,-1,-1],"split_conditions":[5.1633325E0,5.19E2,4.52E2,2.9519854E0,1.8261597E0,-5E0,5.8E0,6.4E0,4.016217E0,6.79E2,1.7E1,-7.4E0,1.21E1,5.77E2,-9E-1,-3E0,4.69E2,5.4E0,3.8E0,3.3E0,2.4E1,-6.1E0,3.4E2,3.53E2,1.18E1,1.0777755E1,3.56E2,-4.4E0,-2.2E0,3.5E2,3.051653E0,-5.0882354E-2,-1.2082872E-1,-8.869351E-2,1.6112794E-1,-1.9110297E-1,1.5545662E-2,1.1416201E-1,-2.003936E-1,-9.239066E-2,1.5768273E-2,-2.4702887E-1,6.371305E-2,8.519175E-2,-2.0318942E-1,8.58662E-2,-6.59075E-2,3.9963048E-2,1.1364425E-1,3.415745E-3,8.214806E-2,-1.04312986E-1,2.2070284E-4,-9.114024E-2,6.3803285E-2,9.876674E-2,-4.6242423E-2,1.1851963E-1,7.229758E-2,1.1782016E-1,1.370449E-2,6.696016E-2,1.1486717E-1],"split_indices":[8,3,3,14,14,5,4,2,8,3,0,5,4,3,5,5,3,4,5,4,0,2,0,3,4,8,3,5,5,0,14,0,0,0,0,0,0,0,0,0,0,0,0,0,0,0,0,0,0,0,0,0,0,0,0,0,0,0,0,0,0,0,0],"split_type":[0,0,0,0,0,0,0,0,0,0,0,0,0,0,0,0,0,0,0,0,0,0,0,0,0,0,0,0,0,0,0,0,0,0,0,0,0,0,0,0,0,0,0,0,0,0,0,0,0,0,0,0,0,0,0,0,0,0,0,0,0,0,0],"sum_hessian":[8.4975516E4,3.48471E4,5.0128414E4,2.1254744E4,1.3592357E4,2.0567045E4,2.9561371E4,2.015607E4,1.0986731E3,1.0022499E4,3.5698584E3,6.381521E3,1.4185523E4,1.4393561E4,1.5167811E4,1.9845846E4,3.1022525E2,6.892343E2,4.0943875E2,7.5698257E3,2.4526733E3,6.695138E1,3.502907E3,4.0606516E3,2.3208696E3,9.755201E3,4.4303223E3,6.1407E3,8.25286E3,8.682813E3,6.4849976E3,1.2252235E3,1.8620623E4,1.4950838E2,1.6071687E2,8.2643616E1,6.065907E2,3.9702414E2,1.2414598E1,4.316194E3,3.2536318E3,4.3945404E1,2.4087278E3,2.0927034E1,4.602434E1,3.4053486E3,9.7558266E1,3.7858057E2,3.682071E3,1.2148263E3,1.1060433E3,7.5340386E3,2.2211624E3,1.0799469E3,3.3503755E3,1.8961094E3,4.244591E3,3.2434731E3,5.0093877E3,8.573922E3,1.0889098E2,3.7039172E3,2.7810803E3],"tree_param":{"num_deleted":"0","num_feature":"15","num_nodes":"63","size_leaf_vector":"1"}},{"base_weights":[-1.6432905E-3,-3.034408E-1,6.465714E-1,-7.979007E-1,1.8922056E-1,4.4495323E-1,9.7667223E-1,-9.9262846E-1,-2.4721143E-1,-9.180761E-2,6.140723E-1,-1.4597268E-2,6.5281534E-1,-9.6653134E-1,9.8896116E-1,-1.3510384E-1,-1.0493819E0,-9.148973E-1,4.977097E-1,-4.7924438E-1,4.4557145E-1,4.8128414E-1,1.0377072E0,7.160659E-1,-3.644647E-1,9.700122E-1,4.876832E-1,4.746514E-1,-1.7245668E-1,1.0689056E0,7.259314E-1,-1.6133192E-1,4.8491387E-3,-1.1765249E-1,7.4554294E-2,-1.2071747E-1,-3.267072E-2,8.9124836E-2,3.5601398E-3,6.643352E-2,-7.0139244E-2,1.0094283E-1,2.7144829E-2,3.1738006E-2,1.08044006E-1,-2.9956803E-1,1.16131075E-1,-2.6601368E-1,8.279199E-2,-5.6972615E-2,9.616853E-2,1.63334E-2,1.1178638E-1,4.6501397E-3,7.478483E-2,-2.3242976E-1,1.0885819E-1,1.19228356E-1,7.380116E-3,-1.16886E-2,1.0369835E-1],"categories":[],"categories_nodes":[],"categories_segments":[],"categories_sizes":[],"default_left":[0,0,0,0,0,0,0,0,0,0,0,0,0,0,0,0,0,0,0,0,0,0,0,0,0,0,0,0,0,0,0,0,0,0,0,0,0,0,0,0,0,0,0,0,0,0,0,0,0,0,0,0,0,0,0,0,0,0,0,0,0],"id":11,"left_children":[1,3,5,7,9,11,13,15,17,19,21,23,25,27,29,31,33,35,37,39,41,43,45,47,49,51,53,55,-1,57,59,-1,-1,-1,-1,-1,-1,-1,-1,-1,-1,-1,-1,-1,-1,-1,-1,-1,-1,-1,-1,-1,-1,-1,-1,-1,-1,-1,-1,-1,-1],"loss_changes":[1.5901173E4,1.3510416E4,1.7180977E3,2.968E3,3.3170513E3,1.5314634E3,2.3474512E2,9.9504297E2,3.597587E3,3.4817288E3,6.217046E2,1.276941E3,5.7775E2,5.3225437E1,2.0380664E2,2.9952505E2,3.4896484E2,4.0832983E2,4.858913E2,1.5989043E3,6.530038E2,8.0943604E2,8.681494E1,1.5185004E2,6.1908777E2,1.15113525E2,6.0226843E2,2.6389194E1,0E0,3.8989258E1,3.9327368E2,0E0,0E0,0E0,0E0,0E0,0E0,0E0,0E0,0E0,0E0,0E0,0E0,0E0,0E0,0E0,0E0,0E0,0E0,0E0,0E0,0E0,0E0,0E0,0E0,0E0,0E0,0E0,0E0,0E0,0E0],"parents":[2147483647,0,0,1,1,2,2,3,3,4,4,5,5,6,6,7,7,8,8,9,9,10,10,11,11,12,12,13,13,14,14,15,15,16,16,17,17,18,18,19,19,20,20,21,21,22,22,23,23,24,24,25,25,26,26,27,27,29,29,30,30],"right_children":[2,4,6,8,10,12,14,16,18,20,22,24,26,28,30,32,34,36,38,40,42,44,46,48,50,52,54,56,-1,58,60,-1,-1,-1,-1,-1,-1,-1,-1,-1,-1,-1,-1,-1,-1,-1,-1,-1,-1,-1,-1,-1,-1,-1,-1,-1,-1,-1,-1,-1,-1],"split_conditions":[8.712061E0,4.79E2,1.4758726E1,9.7E0,4.2E0,4.2E2,3.41E2,-4.2E0,3.77E2,6.36E2,6.31E2,-6.7E0,-4.2E0,-8.6E0,4.3984258E-1,3.62E2,8.2E0,1.87E1,-3.9060703E-1,-3.2E0,-3.7E0,7.8E0,7E0,1.2240529E3,2.73E1,2.4349634E3,5.4E0,1.4E1,-1.7245668E-1,3.57E2,4.33E2,-1.6133192E-1,4.8491387E-3,-1.1765249E-1,7.4554294E-2,-1.2071747E-1,-3.267072E-2,8.9124836E-2,3.5601398E-3,6.643352E-2,-7.0139244E-2,1.0094283E-1,2.7144829E-2,3.1738006E-2,1.08044006E-1,-2.9956803E-1,1.16131075E-1,-2.6601368E-1,8.279199E-2,-5.6972615E-2,9.616853E-2,1.63334E-2,1.1178638E-1,4.6501397E-3,7.478483E-2,-2.3242976E-1,1.0885819E-1,1.19228356E-1,7.380116E-3,-1.16886E-2,1.0369835E-1],"split_indices":[8,3,8,4,4,3,3,5,3,3,3,5,5,5,9,3,2,4,9,5,2,4,0,10,4,11,4,4,0,0,3,0,0,0,0,0,0,0,0,0,0,0,0,0,0,0,0,0,0,0,0,0,0,0,0,0,0,0,0,0,0],"split_type":[0,0,0,0,0,0,0,0,0,0,0,0,0,0,0,0,0,0,0,0,0,0,0,0,0,0,0,0,0,0,0,0,0,0,0,0,0,0,0,0,0,0,0,0,0,0,0,0,0,0,0,0,0,0,0,0,0,0,0,0,0],"sum_hessian":[8.128005E4,5.5459566E4,2.5820482E4,2.7678951E4,2.7780615E4,1.6031283E4,9.789198E3,2.0447695E4,7.2312563E3,1.672094E4,1.1059675E4,4.9931475E3,1.1038136E4,6.103043E1,9.728168E3,1.2694922E3,1.9178203E4,3.8131946E3,3.4180618E3,9.716033E3,7.004907E3,8.421953E3,2.6377214E3,1.6164037E3,3.376744E3,3.7773926E3,7.260743E3,1.7721815E1,4.3308617E1,7.458264E3,2.269904E3,1.5075381E2,1.1187384E3,1.9061732E4,1.16469734E2,2.9826426E3,8.3055206E2,2.064254E3,1.3538077E3,1.2050015E3,8.511032E3,2.1169421E3,4.887965E3,6.029746E3,2.3922073E3,5.281579E0,2.63244E3,1.4579651E1,1.601824E3,3.0130654E3,3.6367847E2,1.6305962E2,3.614333E3,2.1383733E3,5.1223696E3,2.4003484E0,1.5321466E1,7.419528E3,3.873632E1,4.5491733E2,1.8149867E3],"tree_param":{"num_deleted":"0","num_feature":"15","num_nodes":"61","size_leaf_vector":"1"}},{"base_weights":[-1.7588987E-3,-5.0649273E-1,3.4435937E-1,-8.930749E-1,2.385873E-2,-4.8596907E-2,6.323311E-1,-1.0263231E0,-2.0134707E-1,-1.8214378E-1,6.126079E-1,5.6009763E-1,-4.229635E-1,9.925716E-1,4.8345828E-1,-1.0461915E0,7.602932E-1,-9.4422805E-1,1.3941915E-1,2.911261E-1,-4.583504E-1,-3.1940582E-1,6.713622E-1,8.8510346E-1,2.4585547E-1,-6.498575E-1,3.4694856E-1,1.0812782E0,8.539778E-1,2.134832E-1,7.47771E-1,-6.0110215E-2,-1.20295614E-1,-8.257599E-2,2.07203E-1,-1.1670116E-1,1.5013143E-1,-8.0233864E-2,7.323784E-2,-1.110576E-2,6.753482E-2,3.2281507E-2,-7.652037E-2,-1.722447E-1,3.8702954E-2,5.2674998E-2,9.9349946E-2,2.9569227E-2,1.05682574E-1,-9.79913E-2,3.9736137E-2,-9.315652E-2,8.505312E-3,-4.1363984E-2,8.831166E-2,-2.977081E-1,1.20180786E-1,9.626975E-2,-4.0435255E-1,-4.0856406E-2,7.439338E-2,6.7133345E-2,1.0913154E-1],"categories":[],"categories_nodes":[],"categories_segments":[],"categories_sizes":[],"default_left":[0,0,0,0,0,0,0,0,0,0,0,0,0,0,0,0,0,0,0,0,0,0,0,0,0,0,0,0,0,0,0,0,0,0,0,0,0,0,0,0,0,0,0,0,0,0,0,0,0,0,0,0,0,0,0,0,0,0,0,0,0,0,0],"id":12,"left_children":[1,3,5,7,9,11,13,15,17,19,21,23,25,27,29,31,33,35,37,39,41,43,45,47,49,51,53,55,57,59,61,-1,-1,-1,-1,-1,-1,-1,-1,-1,-1,-1,-1,-1,-1,-1,-1,-1,-1,-1,-1,-1,-1,-1,-1,-1,-1,-1,-1,-1,-1,-1,-1],"loss_changes":[1.3597511E4,6.491572E3,5.2248926E3,1.6877686E3,1.61924E3,4.4500996E3,1.4285225E3,5.4586035E2,7.4924536E2,1.2930011E3,1.8971497E2,7.5931665E2,2.112516E3,9.4856445E1,1.3453589E3,2.872246E2,2.834176E2,2.3042609E2,9.111091E2,4.5254022E2,1.0812013E3,1.7005682E2,1.4290161E2,1.512605E2,4.7899976E2,1.2851108E3,8.8909564E2,2.8476562E1,1.8551709E2,2.478278E3,3.2004053E2,0E0,0E0,0E0,0E0,0E0,0E0,0E0,0E0,0E0,0E0,0E0,0E0,0E0,0E0,0E0,0E0,0E0,0E0,0E0,0E0,0E0,0E0,0E0,0E0,0E0,0E0,0E0,0E0,0E0,0E0,0E0,0E0],"parents":[2147483647,0,0,1,1,2,2,3,3,4,4,5,5,6,6,7,7,8,8,9,9,10,10,11,11,12,12,13,13,14,14,15,15,16,16,17,17,18,18,19,19,20,20,21,21,22,22,23,23,24,24,25,25,26,26,27,27,28,28,29,29,30,30],"right_children":[2,4,6,8,10,12,14,16,18,20,22,24,26,28,30,32,34,36,38,40,42,44,46,48,50,52,54,56,58,60,62,-1,-1,-1,-1,-1,-1,-1,-1,-1,-1,-1,-1,-1,-1,-1,-1,-1,-1,-1,-1,-1,-1,-1,-1,-1,-1,-1,-1,-1,-1,-1,-1],"split_conditions":[5.1633325E0,5.14E2,4.55E2,1.7466812E0,1.8261597E0,-3.7E0,-4.2E0,2.44E1,3.97E2,-1.1E0,1.024695E0,-7.4E0,1.5E1,-6.1E0,5.5E0,-2.9E0,3.68E2,6.101757E0,6E0,6.21E2,-3.7E0,3.4E0,2.5975642E0,3.53E2,3.44E2,6.8E0,3.8E2,3E0,3.57E2,5.91E2,5.7E2,-6.0110215E-2,-1.20295614E-1,-8.257599E-2,2.07203E-1,-1.1670116E-1,1.5013143E-1,-8.0233864E-2,7.323784E-2,-1.110576E-2,6.753482E-2,3.2281507E-2,-7.652037E-2,-1.722447E-1,3.8702954E-2,5.2674998E-2,9.9349946E-2,2.9569227E-2,1.05682574E-1,-9.79913E-2,3.9736137E-2,-9.315652E-2,8.505312E-3,-4.1363984E-2,8.831166E-2,-2.977081E-1,1.20180786E-1,9.626975E-2,-4.0435255E-1,-4.0856406E-2,7.439338E-2,6.7133345E-2,1.0913154E-1],"split_indices":[8,3,3,14,14,5,5,4,3,5,8,5,4,5,4,5,3,14,4,3,2,4,14,3,3,12,3,0,0,3,3,0,0,0,0,0,0,0,0,0,0,0,0,0,0,0,0,0,0,0,0,0,0,0,0,0,0,0,0,0,0,0,0],"split_type":[0,0,0,0,0,0,0,0,0,0,0,0,0,0,0,0,0,0,0,0,0,0,0,0,0,0,0,0,0,0,0,0,0,0,0,0,0,0,0,0,0,0,0,0,0,0,0,0,0,0,0,0,0,0,0,0,0,0,0,0,0,0,0],"sum_hessian":[7.7832555E4,3.166133E4,4.6171227E4,1.8312416E4,1.3348914E4,1.9526656E4,2.664457E4,1.5354231E4,2.958184E3,9.889339E3,3.4595752E3,7.4358975E3,1.2090759E4,7.789637E3,1.8854934E4,1.51857705E4,1.6846095E2,9.296806E2,2.0285035E3,3.6445251E3,6.244814E3,2.0489581E2,3.2546792E3,3.6544531E3,3.7814443E3,9.338769E3,2.7519902E3,4.745494E3,3.044143E3,9.328449E3,9.526484E3,1.0528164E3,1.4132954E4,7.153383E1,9.6927124E1,8.8876587E2,4.0914734E1,7.633237E2,1.2651798E3,1.6325369E3,2.0119883E3,1.4717766E3,4.773037E3,7.156454E1,1.3333127E2,1.7329874E3,1.5216919E3,3.5751746E2,3.2969355E3,3.4110114E2,3.4403433E3,7.4075103E3,1.9312577E3,1.0569337E3,1.6950565E3,1.0925529E0,4.744402E3,3.0359592E3,8.183842E0,4.1035376E3,5.2249116E3,5.9290713E3,3.5974126E3],"tree_param":{"num_deleted":"0","num_feature":"15","num_nodes":"63","size_leaf_vector":"1"}},{"base_weights":[-1.8440308E-3,-2.4218225E-1,6.4763516E-1,-7.252424E-1,1.5502205E-1,1.4467625E-1,7.493898E-1,-8.9233226E-1,3.2641903E-2,5.930711E-1,-8.537856E-2,4.5079592E-1,-5.8962077E-1,1.0179063E0,6.1539876E-1,-1.2196394E-1,-9.8498577E-1,-7.137161E-1,6.2887436E-1,8.966455E-1,4.5778704E-1,-2.7283683E-1,4.7639257E-1,5.386551E-1,-9.645272E-1,-7.8343475E-1,5.5328345E-1,1.0820276E0,8.7197644E-1,6.651486E-1,-6.243692E-1,-1.1387269E-1,8.186451E-3,-1.1181128E-1,1.2370301E-2,-5.595017E-3,-1.0694165E-1,8.7154105E-2,-1.0951145E-2,1.00441426E-1,-3.6506596E-1,2.8391674E-2,8.492857E-2,-8.9180216E-2,9.281707E-3,6.339856E-2,-3.8078126E-2,-7.6874895E-3,7.711018E-2,9.67386E-2,-1.9296286E-1,-1.0798668E-1,3.887185E-2,8.192291E-2,-2.6038006E-1,1.23687886E-1,1.1323323E-1,5.0970692E-2,1.0451046E-1,5.5251125E-2,1.025895E-1,-2.259127E-2,-2.008583E-1],"categories":[],"categories_nodes":[],"categories_segments":[],"categories_sizes":[],"default_left":[0,0,0,0,0,0,0,0,0,0,0,0,0,0,0,0,0,0,0,0,0,0,0,0,0,0,0,0,0,0,0,0,0,0,0,0,0,0,0,0,0,0,0,0,0,0,0,0,0,0,0,0,0,0,0,0,0,0,0,0,0,0,0],"id":13,"left_children":[1,3,5,7,9,11,13,15,17,19,21,23,25,27,29,31,33,35,37,39,41,43,45,47,49,51,53,55,57,59,61,-1,-1,-1,-1,-1,-1,-1,-1,-1,-1,-1,-1,-1,-1,-1,-1,-1,-1,-1,-1,-1,-1,-1,-1,-1,-1,-1,-1,-1,-1,-1,-1],"loss_changes":[1.1634884E4,1.0438981E4,1.0302373E3,3.1088467E3,3.144153E3,7.620334E2,6.018213E2,1.435624E3,1.9743256E3,4.3407275E2,2.0302754E3,2.980077E2,2.2140027E2,5.1200195E1,6.8954346E2,3.823191E2,4.3957617E2,3.2631854E2,2.805304E2,1.153103E2,4.5426917E2,2.734016E3,3.7478345E2,2.1376874E2,2.0070587E2,1.8357483E2,7.9516815E1,6.5913086E0,4.855896E1,4.654131E2,2.1488596E2,0E0,0E0,0E0,0E0,0E0,0E0,0E0,0E0,0E0,0E0,0E0,0E0,0E0,0E0,0E0,0E0,0E0,0E0,0E0,0E0,0E0,0E0,0E0,0E0,0E0,0E0,0E0,0E0,0E0,0E0,0E0,0E0],"parents":[2147483647,0,0,1,1,2,2,3,3,4,4,5,5,6,6,7,7,8,8,9,9,10,10,11,11,12,12,13,13,14,14,15,15,16,16,17,17,18,18,19,19,20,20,21,21,22,22,23,23,24,24,25,25,26,26,27,27,28,28,29,29,30,30],"right_children":[2,4,6,8,10,12,14,16,18,20,22,24,26,28,30,32,34,36,38,40,42,44,46,48,50,52,54,56,58,60,62,-1,-1,-1,-1,-1,-1,-1,-1,-1,-1,-1,-1,-1,-1,-1,-1,-1,-1,-1,-1,-1,-1,-1,-1,-1,-1,-1,-1,-1,-1,-1,-1],"split_conditions":[9.634314E0,4.65E2,3.9E2,1.27E1,-1.6E0,-1E-1,-5.6E0,-3.8E0,3.68E2,-4.2E0,5.2E0,3.2E2,2.73E1,-8.6E0,3.33E2,5.586593E3,7E0,-2.7E0,1.1210368E0,3.61E2,6.21E2,5.8E2,3.09E2,3.51E2,-1.09E1,1.17E1,1.2854094E4,-1.09E1,-5.2E0,5.37E2,2.2E0,-1.1387269E-1,8.186451E-3,-1.1181128E-1,1.2370301E-2,-5.595017E-3,-1.0694165E-1,8.7154105E-2,-1.0951145E-2,1.00441426E-1,-3.6506596E-1,2.8391674E-2,8.492857E-2,-8.9180216E-2,9.281707E-3,6.339856E-2,-3.8078126E-2,-7.6874895E-3,7.711018E-2,9.67386E-2,-1.9296286E-1,-1.0798668E-1,3.887185E-2,8.192291E-2,-2.6038006E-1,1.23687886E-1,1.1323323E-1,5.0970692E-2,1.0451046E-1,5.5251125E-2,1.025895E-1,-2.259127E-2,-2.008583E-1],"split_indices":[8,3,3,4,5,5,5,5,3,5,4,0,4,5,0,11,12,5,9,0,3,3,0,3,5,12,10,5,12,3,2,0,0,0,0,0,0,0,0,0,0,0,0,0,0,0,0,0,0,0,0,0,0,0,0,0,0,0,0,0,0,0,0],"split_type":[0,0,0,0,0,0,0,0,0,0,0,0,0,0,0,0,0,0,0,0,0,0,0,0,0,0,0,0,0,0,0,0,0,0,0,0,0,0,0,0,0,0,0,0,0,0,0,0,0,0,0,0,0,0,0,0,0,0,0,0,0,0,0],"sum_hessian":[7.453536E4,5.4403938E4,2.013142E4,2.4548477E4,2.985546E4,3.3879055E3,1.6743514E4,2.0113826E4,4.4346494E3,1.0578409E4,1.927705E4,2.3913616E3,9.96544E2,5.5715674E3,1.1171946E4,2.1596582E3,1.7954168E4,1.9693008E3,2.4653486E3,3.2592034E3,7.319206E3,1.4454291E4,4.8227607E3,2.2521726E3,1.3918898E2,8.5232166E2,1.4422238E2,3.8663064E3,1.7052607E3,1.0741376E4,4.3057022E2,3.8362744E2,1.7760308E3,1.7596E4,3.5816907E2,5.3894904E2,1.4303517E3,2.0293083E3,4.360404E2,3.253588E3,5.615448E0,4.417494E3,2.9017117E3,5.807905E3,8.646386E3,4.323109E3,4.9965186E2,4.601076E2,1.792065E3,4.1233974E1,9.795501E1,7.304181E2,1.2190354E2,1.3628232E2,7.9400544E0,2.5301418E3,1.3361647E3,2.4701518E2,1.4582456E3,6.5271475E3,4.2142285E3,3.1860678E2,1.1196345E2],"tree_param":{"num_deleted":"0","num_feature":"15","num_nodes":"63","size_leaf_vector":"1"}},{"base_weights":[-2.0368136E-3,-5.448029E-1,2.5234017E-1,-8.518403E-1,4.809556E-2,-6.797989E-1,3.6147708E-1,-9.731921E-1,-2.0652184E-1,-2.5506574E-1,4.698009E-1,2.1111174E-1,-8.945756E-1,6.6294056E-1,1.0076567E-1,-9.939351E-1,7.958192E-1,-7.594033E-1,1.3877788E-1,4.0784496E-1,-4.523336E-1,-1.463159E0,5.09164E-1,3.427216E-1,-1.9985654E0,-1.0221034E0,-2.9809353E-1,9.5446545E-1,5.248008E-1,-2.2893848E-1,4.5084572E-1,3.4904405E-2,-1.1202661E-1,1.880792E-1,-6.7477204E-2,-1.1297633E-1,8.257962E-2,-6.9595486E-2,7.2897434E-2,-2.4048512E-1,6.2028002E-2,-9.556228E-2,3.489035E-3,-1.9828214E-1,1.077436E-1,3.809033E-2,9.711432E-2,-8.221119E-2,5.5846527E-2,-1.566427E-1,-2.6329383E-1,-7.8849375E-2,-1.20314226E-1,-1.474904E-1,4.1121403E-3,1.147053E-1,8.907572E-2,3.9826844E-2,9.339975E-2,-7.7199824E-2,2.6878512E-2,5.635829E-2,-1.0312857E-1],"categories":[],"categories_nodes":[],"categories_segments":[],"categories_sizes":[],"default_left":[0,0,0,0,0,0,0,0,0,0,0,0,0,0,0,0,0,0,0,0,0,0,0,0,0,0,0,0,0,0,0,0,0,0,0,0,0,0,0,0,0,0,0,0,0,0,0,0,0,0,0,0,0,0,0,0,0,0,0,0,0,0,0],"id":14,"left_children":[1,3,5,7,9,11,13,15,17,19,21,23,25,27,29,31,33,35,37,39,41,43,45,47,49,51,53,55,57,59,61,-1,-1,-1,-1,-1,-1,-1,-1,-1,-1,-1,-1,-1,-1,-1,-1,-1,-1,-1,-1,-1,-1,-1,-1,-1,-1,-1,-1,-1,-1,-1,-1],"loss_changes":[9.871463E3,4.153445E3,4.952693E3,1.1769258E3,9.954059E2,9.765803E2,3.4251143E3,4.6505176E2,4.5457E2,5.925497E2,2.4851001E2,2.8917392E2,3.124668E2,8.1339355E2,2.69763E3,2.5088477E2,1.8669153E2,3.563365E2,5.8194995E2,4.051505E2,6.9014716E2,5.305269E1,1.9350897E2,1.6321254E2,8.916565E0,6.449463E1,2.5069919E2,7.708789E1,7.2057764E2,2.645614E3,8.9030396E2,0E0,0E0,0E0,0E0,0E0,0E0,0E0,0E0,0E0,0E0,0E0,0E0,0E0,0E0,0E0,0E0,0E0,0E0,0E0,0E0,0E0,0E0,0E0,0E0,0E0,0E0,0E0,0E0,0E0,0E0,0E0,0E0],"parents":[2147483647,0,0,1,1,2,2,3,3,4,4,5,5,6,6,7,7,8,8,9,9,10,10,11,11,12,12,13,13,14,14,15,15,16,16,17,17,18,18,19,19,20,20,21,21,22,22,23,23,24,24,25,25,26,26,27,27,28,28,29,29,30,30],"right_children":[2,4,6,8,10,12,14,16,18,20,22,24,26,28,30,32,34,36,38,40,42,44,46,48,50,52,54,56,58,60,62,-1,-1,-1,-1,-1,-1,-1,-1,-1,-1,-1,-1,-1,-1,-1,-1,-1,-1,-1,-1,-1,-1,-1,-1,-1,-1,-1,-1,-1,-1,-1,-1],"split_conditions":[4.3301272E0,5.63E2,3.63E2,1.8261597E0,1.4017632E0,-5.3E0,-1.8E0,6.7E0,4.28E2,-3.7E0,1.7E1,-9.652517E-1,1.73E1,-6.7E0,5.14E2,-6.3E0,-1.5E0,4.459445E0,5.6E0,6E1,2.8E0,7.3E0,2.5975642E0,7.9E0,3.41E2,2.8551523E2,3.21E2,-8.6E0,5.54E2,7.5E0,3.33E2,3.4904405E-2,-1.1202661E-1,1.880792E-1,-6.7477204E-2,-1.1297633E-1,8.257962E-2,-6.9595486E-2,7.2897434E-2,-2.4048512E-1,6.2028002E-2,-9.556228E-2,3.489035E-3,-1.9828214E-1,1.077436E-1,3.809033E-2,9.711432E-2,-8.221119E-2,5.5846527E-2,-1.566427E-1,-2.6329383E-1,-7.8849375E-2,-1.20314226E-1,-1.474904E-1,4.1121403E-3,1.147053E-1,8.907572E-2,3.9826844E-2,9.339975E-2,-7.7199824E-2,2.6878512E-2,5.635829E-2,-1.0312857E-1],"split_indices":[8,3,3,14,14,5,5,2,3,2,0,9,4,5,3,2,5,14,4,0,4,12,14,4,3,11,3,5,3,4,0,0,0,0,0,0,0,0,0,0,0,0,0,0,0,0,0,0,0,0,0,0,0,0,0,0,0,0,0,0,0,0,0],"split_type":[0,0,0,0,0,0,0,0,0,0,0,0,0,0,0,0,0,0,0,0,0,0,0,0,0,0,0,0,0,0,0,0,0,0,0,0,0,0,0,0,0,0,0,0,0,0,0,0,0,0,0,0,0,0,0,0,0,0,0,0,0,0,0],"sum_hessian":[7.149553E4,2.2814633E4,4.8680895E4,1.5030518E4,7.784116E3,5.1017324E3,4.3579164E4,1.2650997E4,2.3795203E3,4.5287915E3,3.2553247E3,9.9100055E2,4.110732E3,2.020934E4,2.3369824E4,1.2504807E4,1.4619061E2,9.143295E2,1.4651908E3,1.0383593E3,3.4904321E3,6.424704E1,3.1910776E3,9.360912E2,5.490933E1,3.3860757E3,7.246562E2,6.4955234E3,1.3713815E4,1.2035335E4,1.1334489E4,1.4443892E2,1.2360367E4,8.900639E1,5.7184223E1,7.804987E2,1.3383081E2,5.910907E2,8.7410004E2,5.6778618E1,9.815807E2,1.8918234E3,1.5986089E3,5.6951035E1,7.2960057E0,2.1961787E3,9.9489886E2,1.2025521E2,8.15836E2,2.3199522E1,3.1709806E1,5.6232495E2,2.8237507E3,1.7709004E2,5.4756616E2,4.2716772E3,2.2238462E3,8.99844E3,4.715376E3,6.0465127E3,5.988822E3,1.088634E4,4.4814886E2],"tree_param":{"num_deleted":"0","num_feature":"15","num_nodes":"63","size_leaf_vector":"1"}},{"base_weights":[-2.2990694E-3,-2.057764E-1,6.20027E-1,-6.435813E-1,1.3594045E-1,4.169851E-1,8.565187E-1,-8.9656174E-1,-1.3203563E-1,-1.21011786E-1,4.7624993E-1,6.20132E-1,8.697292E-2,9.547467E-1,6.036858E-1,-4.9674833E-1,-1.0243136E0,-7.06653E-1,3.9145228E-1,-4.342935E-1,3.3891013E-1,3.6171085E-1,9.261236E-1,1.6408706E-2,7.3486656E-1,-6.722775E-1,3.110422E-1,-1.6445765E-1,9.62633E-1,-1.4611974E-1,8.2561827E-1,-9.4394654E-2,-2.6461262E-2,-1.1590411E-1,-3.7341475E-2,-1.0618508E-1,-1.7851481E-2,7.0671655E-2,5.886132E-4,-7.623755E-3,-8.399433E-2,1.0486349E-2,7.385691E-2,1.9890804E-2,8.6584136E-2,-2.9415494E-1,1.0388586E-1,-1.1414779E-1,5.8458213E-2,1.0715282E-2,9.340339E-2,-2.1302627E-1,-5.0300688E-2,-4.3521747E-3,7.447148E-2,8.528145E-2,1.1181249E-1,-1.1339387E-1,6.568891E-2,9.371699E-2,-3.8470745E-1],"categories":[],"categories_nodes":[],"categories_segments":[],"categories_sizes":[],"default_left":[0,0,0,0,0,0,0,0,0,0,0,0,0,0,0,0,0,0,0,0,0,0,0,0,0,0,0,0,0,0,0,0,0,0,0,0,0,0,0,0,0,0,0,0,0,0,0,0,0,0,0,0,0,0,0,0,0,0,0,0,0],"id":15,"left_children":[1,3,5,7,9,11,13,15,17,19,21,23,25,27,29,31,33,35,37,39,41,43,45,47,49,51,53,-1,55,57,59,-1,-1,-1,-1,-1,-1,-1,-1,-1,-1,-1,-1,-1,-1,-1,-1,-1,-1,-1,-1,-1,-1,-1,-1,-1,-1,-1,-1,-1,-1],"loss_changes":[8.709922E3,7.754849E3,8.134492E2,2.9404707E3,2.5457893E3,6.114182E2,1.9383887E2,7.7605176E2,2.2623716E3,2.3903547E3,6.450593E2,3.9103467E2,5.916377E2,1.097168E2,3.650611E2,3.3636426E2,1.5710742E2,4.8903284E2,3.726963E2,1.1631538E3,5.3635516E2,7.622174E2,9.140161E1,4.816883E2,3.2273657E2,2.1565042E2,3.3845206E2,0E0,4.8018066E1,3.247159E2,1.3858435E2,0E0,0E0,0E0,0E0,0E0,0E0,0E0,0E0,0E0,0E0,0E0,0E0,0E0,0E0,0E0,0E0,0E0,0E0,0E0,0E0,0E0,0E0,0E0,0E0,0E0,0E0,0E0,0E0,0E0,0E0],"parents":[2147483647,0,0,1,1,2,2,3,3,4,4,5,5,6,6,7,7,8,8,9,9,10,10,11,11,12,12,13,13,14,14,15,15,16,16,17,17,18,18,19,19,20,20,21,21,22,22,23,23,24,24,25,25,26,26,28,28,29,29,30,30],"right_children":[2,4,6,8,10,12,14,16,18,20,22,24,26,28,30,32,34,36,38,40,42,44,46,48,50,52,54,-1,56,58,60,-1,-1,-1,-1,-1,-1,-1,-1,-1,-1,-1,-1,-1,-1,-1,-1,-1,-1,-1,-1,-1,-1,-1,-1,-1,-1,-1,-1,-1,-1],"split_conditions":[1.0131634E1,4.65E2,1.4758726E1,9.4E0,4.2E0,-4E-1,3.2175055E-1,-1.8E0,3.77E2,6.36E2,6.31E2,-5E0,1.0962262E0,3.36E2,4.33E2,5.5803227E0,3.051653E0,1.73E1,-5E-1,-6E-1,7.05E2,7.8E0,7E0,4.36E2,1.3498446E3,3.7E0,4.87E2,-1.6445765E-1,-2.4087775E0,1.73E1,3.54E2,-9.4394654E-2,-2.6461262E-2,-1.1590411E-1,-3.7341475E-2,-1.0618508E-1,-1.7851481E-2,7.0671655E-2,5.886132E-4,-7.623755E-3,-8.399433E-2,1.0486349E-2,7.385691E-2,1.9890804E-2,8.6584136E-2,-2.9415494E-1,1.0388586E-1,-1.1414779E-1,5.8458213E-2,1.0715282E-2,9.340339E-2,-2.1302627E-1,-5.0300688E-2,-4.3521747E-3,7.447148E-2,8.528145E-2,1.1181249E-1,-1.1339387E-1,6.568891E-2,9.371699E-2,-3.8470745E-1],"split_indices":[8,3,8,4,4,5,9,5,3,3,3,12,14,3,3,8,14,4,5,5,3,4,0,3,11,4,3,0,9,4,0,0,0,0,0,0,0,0,0,0,0,0,0,0,0,0,0,0,0,0,0,0,0,0,0,0,0,0,0,0,0],"split_type":[0,0,0,0,0,0,0,0,0,0,0,0,0,0,0,0,0,0,0,0,0,0,0,0,0,0,0,0,0,0,0,0,0,0,0,0,0,0,0,0,0,0,0,0,0,0,0,0,0,0,0,0,0,0,0,0,0,0,0,0,0],"sum_hessian":[6.878085E4,5.1833805E4,1.6947045E4,2.272186E4,2.9111947E4,9.119868E3,7.8271763E3,1.5202729E4,7.5191313E3,1.6587855E4,1.2524091E4,5.6444263E3,3.475442E3,5.635106E3,2.19207E3,3.6825786E3,1.1520149E4,3.5843477E3,3.9347834E3,9.866927E3,6.720928E3,9.983953E3,2.540138E3,9.015722E2,4.742854E3,7.9149384E2,2.683948E3,1.757863E1,5.6175273E3,5.007186E2,1.6913514E3,1.553618E3,2.1289604E3,1.119627E4,3.238799E2,2.4579468E3,1.1264008E3,2.4061057E3,1.5286777E3,4.6242744E3,5.2426523E3,3.8440393E3,2.8768887E3,6.952172E3,3.0317812E3,6.1950083E0,2.5339429E3,2.954978E2,6.060744E2,6.790057E2,4.0638484E3,1.17142624E2,6.743512E2,1.3606072E3,1.3233407E3,1.0536494E3,4.563878E3,2.2884094E2,2.7187762E2,1.6848214E3,6.5300736E0],"tree_param":{"num_deleted":"0","num_feature":"15","num_nodes":"61","size_leaf_vector":"1"}},{"base_weights":[-2.3662415E-3,-1.908485E-1,5.814944E-1,-6.789539E-1,8.342468E-2,3.851377E-1,8.1778145E-1,-8.201606E-1,2.1107303E-1,-1.0986733E-1,4.782081E-1,5.7604265E-1,7.461167E-2,9.177131E-1,5.665526E-1,-1.2709689E-1,-9.2473716E-1,-7.096614E-1,5.2906734E-1,-5.460058E-1,2.0758584E-1,6.573435E-1,2.2444585E-1,-9.880285E-4,6.883653E-1,-3.1016263E-1,4.679557E-1,-1.5696365E-1,9.253478E-1,-1.1194233E-1,7.9042983E-1,-1.12895705E-1,7.913883E-3,-1.0721456E-1,-4.5660667E-2,3.466832E-1,-9.623215E-2,8.668418E-2,1.0732608E-2,5.1197838E-2,-7.256026E-2,5.2778203E-2,-3.621492E-3,-4.0297095E-2,7.689679E-2,-6.9815344E-3,6.1848488E-2,6.5615825E-2,-9.027466E-2,9.296439E-3,8.860505E-2,-8.382264E-2,8.8156376E-5,4.5664273E-3,7.811338E-2,6.815564E-2,1.062147E-1,-9.898384E-2,6.281837E-2,8.982817E-2,-3.0044568E-1],"categories":[],"categories_nodes":[],"categories_segments":[],"categories_sizes":[],"default_left":[0,0,0,0,0,0,0,0,0,0,0,0,0,0,0,0,0,0,0,0,0,0,0,0,0,0,0,0,0,0,0,0,0,0,0,0,0,0,0,0,0,0,0,0,0,0,0,0,0,0,0,0,0,0,0,0,0,0,0,0,0],"id":16,"left_children":[1,3,5,7,9,11,13,15,17,19,21,23,25,27,29,31,33,35,37,39,41,43,45,47,49,51,53,-1,55,57,59,-1,-1,-1,-1,-1,-1,-1,-1,-1,-1,-1,-1,-1,-1,-1,-1,-1,-1,-1,-1,-1,-1,-1,-1,-1,-1,-1,-1,-1,-1],"loss_changes":[7.275308E3,6.690697E3,7.482295E2,2.2598398E3,2.4417876E3,5.2241345E2,1.8328906E2,1.1246035E3,7.21447E2,2.9743264E3,4.7795654E2,3.5373413E2,5.081502E2,9.45293E1,3.169671E2,3.595073E2,2.8451562E2,3.8413077E2,1.9934052E2,9.819072E2,8.001044E2,2.2306104E2,4.1630685E2,4.286826E2,3.034319E2,2.348702E2,1.670344E2,0E0,5.067041E1,2.7455426E2,1.055061E2,0E0,0E0,0E0,0E0,0E0,0E0,0E0,0E0,0E0,0E0,0E0,0E0,0E0,0E0,0E0,0E0,0E0,0E0,0E0,0E0,0E0,0E0,0E0,0E0,0E0,0E0,0E0,0E0,0E0,0E0],"parents":[2147483647,0,0,1,1,2,2,3,3,4,4,5,5,6,6,7,7,8,8,9,9,10,10,11,11,12,12,13,13,14,14,15,15,16,16,17,17,18,18,19,19,20,20,21,21,22,22,23,23,24,24,25,25,26,26,28,28,29,29,30,30],"right_children":[2,4,6,8,10,12,14,16,18,20,22,24,26,28,30,32,34,36,38,40,42,44,46,48,50,52,54,-1,56,58,60,-1,-1,-1,-1,-1,-1,-1,-1,-1,-1,-1,-1,-1,-1,-1,-1,-1,-1,-1,-1,-1,-1,-1,-1,-1,-1,-1,-1,-1,-1],"split_conditions":[1.0131634E1,4.38E2,1.4758726E1,1.62E1,5.2E0,-3E-1,3.2175055E-1,-3.8E0,3.42E2,5.77E2,-4E-1,-5E0,4.72E2,3.36E2,4.35E2,3.59E2,5.7E0,4.5279976E-2,-5E-1,-4.2E0,-7E-1,6.393426E2,7.7E0,1.71E2,1.3498446E3,1.4754514E0,1.9179926E0,-1.5696365E-1,3.79E2,1.73E1,3.54E2,-1.12895705E-1,7.913883E-3,-1.0721456E-1,-4.5660667E-2,3.466832E-1,-9.623215E-2,8.668418E-2,1.0732608E-2,5.1197838E-2,-7.256026E-2,5.2778203E-2,-3.621492E-3,-4.0297095E-2,7.689679E-2,-6.9815344E-3,6.1848488E-2,6.5615825E-2,-9.027466E-2,9.296439E-3,8.860505E-2,-8.382264E-2,8.8156376E-5,4.5664273E-3,7.811338E-2,6.815564E-2,1.062147E-1,-9.898384E-2,6.281837E-2,8.982817E-2,-3.0044568E-1],"split_indices":[8,3,8,4,4,5,9,5,3,3,5,12,3,3,3,3,12,14,5,5,5,11,4,0,11,14,14,0,3,4,0,0,0,0,0,0,0,0,0,0,0,0,0,0,0,0,0,0,0,0,0,0,0,0,0,0,0,0,0,0,0],"split_type":[0,0,0,0,0,0,0,0,0,0,0,0,0,0,0,0,0,0,0,0,0,0,0,0,0,0,0,0,0,0,0,0,0,0,0,0,0,0,0,0,0,0,0,0,0,0,0,0,0,0,0,0,0,0,0,0,0,0,0,0,0],"sum_hessian":[6.610869E4,4.997606E4,1.613263E4,1.7978848E4,3.199721E4,8.812223E3,7.320407E3,1.5517073E4,2.4617742E3,2.1480668E4,1.0516542E4,5.456701E3,3.3555212E3,5.2353013E3,2.0851062E3,2.0346937E3,1.348238E4,6.316464E2,1.8301278E3,9.048505E3,1.2432163E4,6.163808E3,4.3527344E3,8.8927185E2,4.567429E3,1.6963455E3,1.6591759E3,1.648423E1,5.218817E3,5.1743585E2,1.5676704E3,3.7013962E2,1.6645541E3,1.2480855E4,1.00152374E3,2.41562E1,6.074902E2,1.1559501E3,6.7417773E2,8.7366455E2,8.174841E3,5.876967E3,6.555197E3,2.0647472E2,5.9573335E3,2.3361638E3,2.0165708E3,5.145005E2,3.7477133E2,7.0267487E2,3.8647544E3,6.971941E2,9.9915137E2,5.908043E2,1.0683716E3,4.8196695E2,4.73685E3,2.4047995E2,2.769559E2,1.5600377E3,7.6326056E0],"tree_param":{"num_deleted":"0","num_feature":"15","num_nodes":"61","size_leaf_vector":"1"}},{"base_weights":[-2.4330695E-3,-4.731785E-1,2.1131314E-1,-8.5287225E-1,-6.535626E-2,-2.1388167E-1,3.8550583E-1,-9.709516E-1,-2.9428867E-1,-2.9727674E-1,4.0113726E-1,5.901228E-1,-3.9286438E-1,2.3424041E-1,7.3471683E-1,-9.910002E-1,7.830784E-1,-1.0612025E0,-6.50925E-2,3.2879248E-1,-4.6354678E-1,-1.4218653E0,4.3943125E-1,9.110185E-1,4.0585738E-1,-6.08395E-1,2.2813313E-1,-8.778353E-2,5.246871E-1,6.194577E-1,8.831121E-1,-1.10902324E-1,2.0106915E-1,-1.3367197E-1,1.7162448E-1,-1.2736155E-1,2.0200725E-1,-6.794592E-2,5.51869E-2,-7.1939364E-2,9.2068136E-2,-7.186971E-2,3.8873002E-2,-1.8416347E-1,5.76605E-2,1.05133116E-1,3.395521E-2,4.0386464E-2,1.0720719E-1,7.324131E-3,6.942097E-2,-8.3509415E-2,-1.0835858E-2,-8.761486E-2,4.757887E-2,8.150587E-2,-2.722754E-2,9.9120684E-2,4.366965E-2,-2.2496302E-2,7.523657E-2,8.101823E-2,1.0743258E-1],"categories":[],"categories_nodes":[],"categories_segments":[],"categories_sizes":[],"default_left":[0,0,0,0,0,0,0,0,0,0,0,0,0,0,0,0,0,0,0,0,0,0,0,0,0,0,0,0,0,0,0,0,0,0,0,0,0,0,0,0,0,0,0,0,0,0,0,0,0,0,0,0,0,0,0,0,0,0,0,0,0,0,0],"id":17,"left_children":[1,3,5,7,9,11,13,15,17,19,21,23,25,27,29,31,33,35,37,39,41,43,45,47,49,51,53,55,57,59,61,-1,-1,-1,-1,-1,-1,-1,-1,-1,-1,-1,-1,-1,-1,-1,-1,-1,-1,-1,-1,-1,-1,-1,-1,-1,-1,-1,-1,-1,-1,-1,-1],"loss_changes":[6.403819E3,3.0773809E3,3.2419136E3,6.7853516E2,1.0369135E3,1.8308015E3,1.6399854E3,2.9952344E2,3.1586407E2,6.6652325E2,2.2280743E2,1.36612E2,1.3928185E3,2.0265442E3,1.5995752E2,1.929541E2,1.4830241E2,1.04778534E2,4.262698E2,6.5782245E2,7.5735144E2,3.113121E1,2.110899E2,2.4968323E1,1.0990631E2,5.6785547E2,5.47405E2,1.3307114E3,5.5038965E2,2.5366553E2,5.2532227E1,0E0,0E0,0E0,0E0,0E0,0E0,0E0,0E0,0E0,0E0,0E0,0E0,0E0,0E0,0E0,0E0,0E0,0E0,0E0,0E0,0E0,0E0,0E0,0E0,0E0,0E0,0E0,0E0,0E0,0E0,0E0,0E0],"parents":[2147483647,0,0,1,1,2,2,3,3,4,4,5,5,6,6,7,7,8,8,9,9,10,10,11,11,12,12,13,13,14,14,15,15,16,16,17,17,18,18,19,19,20,20,21,21,22,22,23,23,24,24,25,25,26,26,27,27,28,28,29,29,30,30],"right_children":[2,4,6,8,10,12,14,16,18,20,22,24,26,28,30,32,34,36,38,40,42,44,46,48,50,52,54,56,58,60,62,-1,-1,-1,-1,-1,-1,-1,-1,-1,-1,-1,-1,-1,-1,-1,-1,-1,-1,-1,-1,-1,-1,-1,-1,-1,-1,-1,-1,-1,-1,-1,-1],"split_conditions":[4.3301272E0,5.14E2,4.19E2,1.7466812E0,1.5618179E0,-6.7E0,8.1E0,6.7E0,5.1E0,-3.8E0,1.7E1,-1.09E1,1.53E1,5.54E2,4.99E2,3.31E1,5.7E0,3.4E0,4.28E2,2.33E2,3.9E0,7.3E0,-4.9E0,3.52E2,1.14E1,1.0777755E1,3.4E2,-5.6E0,-3.1E0,4.8E1,1.02E1,-1.10902324E-1,2.0106915E-1,-1.3367197E-1,1.7162448E-1,-1.2736155E-1,2.0200725E-1,-6.794592E-2,5.51869E-2,-7.1939364E-2,9.2068136E-2,-7.186971E-2,3.8873002E-2,-1.8416347E-1,5.76605E-2,1.05133116E-1,3.395521E-2,4.0386464E-2,1.0720719E-1,7.324131E-3,6.942097E-2,-8.3509415E-2,-1.0835858E-2,-8.761486E-2,4.757887E-2,8.150587E-2,-2.722754E-2,9.9120684E-2,4.366965E-2,-2.2496302E-2,7.523657E-2,8.101823E-2,1.0743258E-1],"split_indices":[8,3,3,14,14,5,4,2,4,2,0,5,4,3,3,4,4,5,3,0,2,12,2,3,4,8,3,5,5,0,4,0,0,0,0,0,0,0,0,0,0,0,0,0,0,0,0,0,0,0,0,0,0,0,0,0,0,0,0,0,0,0,0],"split_type":[0,0,0,0,0,0,0,0,0,0,0,0,0,0,0,0,0,0,0,0,0,0,0,0,0,0,0,0,0,0,0,0,0,0,0,0,0,0,0,0,0,0,0,0,0,0,0,0,0,0,0,0,0,0,0,0,0,0,0,0,0,0,0],"sum_hessian":[6.3641574E4,1.9872975E4,4.3768598E4,1.0290834E4,9.582141E3,1.2719868E4,3.104873E4,8.494448E3,1.7963854E3,6.4004673E3,3.1816738E3,2.3156204E3,1.0404248E4,2.1665639E4,9.38309E3,8.398885E3,9.556422E1,4.124972E2,1.3838882E3,1.342914E3,5.057553E3,6.471586E1,3.116958E3,8.432202E2,1.4724001E3,7.7236187E3,2.6806287E3,1.0274641E4,1.1390998E4,5.284092E3,4.0989985E3,8.375261E3,2.3623363E1,2.635336E1,6.921086E1,4.0109857E2,1.1398646E1,7.014046E2,6.824836E2,4.5493207E2,8.879819E2,4.125333E3,9.322205E2,5.7797356E1,6.9185033E0,6.477878E2,2.4691702E3,7.7472015E1,7.6574817E2,5.783751E2,8.940251E2,6.025182E3,1.6984369E3,4.4081158E2,2.2398171E3,1.6515012E3,8.62314E3,2.991637E3,8.399361E3,3.5001312E2,4.9340786E3,1.4632307E3,2.6357678E3],"tree_param":{"num_deleted":"0","num_feature":"15","num_nodes":"63","size_leaf_vector":"1"}},{"base_weights":[-2.4302744E-3,4.2267966E-1,-2.143281E-1,-3.3673087E-1,5.009434E-1,-5.092674E-1,2.0601946E-1,-9.9981886E-1,-1.899102E-2,8.5187566E-1,3.727299E-1,-8.4811026E-1,-1.7206219E-1,-5.5461955E-1,3.0562177E-1,1.3928524E0,-1.0489926E0,-9.956561E-1,1.592451E-1,6.253374E-1,9.3149084E-1,4.0029997E-1,-1.408825E0,-9.1264594E-1,-1.6241492E-1,-5.6441045E-1,8.7696925E-2,-9.056017E-1,4.0309865E-2,1.6772999E-1,7.72682E-1,2.4104206E-1,-1.0541688E-1,-3.3065032E-2,-1.2625742E-1,-1.3006829E-1,1.2729046E-1,2.9917523E-1,1.0850235E-2,9.0304285E-2,2.6461497E-2,1.11651175E-1,8.996121E-2,2.2426074E-2,6.877932E-2,-2.217721E-1,-9.926767E-2,-1.0433233E-1,3.43503E-2,-1.3052025E-1,4.5450628E-2,-8.2142875E-2,5.2588403E-2,1.9495988E-2,-1.3174517E-1,-1.2573735E-1,-6.6129014E-2,2.0427955E-2,-1.4606155E-1,2.6682023E-2,-7.397803E-2,9.0520844E-2,-1.0129281E-1],"categories":[],"categories_nodes":[],"categories_segments":[],"categories_sizes":[],"default_left":[0,0,0,0,0,0,0,0,0,0,0,0,0,0,0,0,0,0,0,0,0,0,0,0,0,0,0,0,0,0,0,0,0,0,0,0,0,0,0,0,0,0,0,0,0,0,0,0,0,0,0,0,0,0,0,0,0,0,0,0,0,0,0],"id":18,"left_children":[1,3,5,7,9,11,13,15,17,19,21,23,25,27,29,31,33,35,37,39,41,43,45,47,49,51,53,55,57,59,61,-1,-1,-1,-1,-1,-1,-1,-1,-1,-1,-1,-1,-1,-1,-1,-1,-1,-1,-1,-1,-1,-1,-1,-1,-1,-1,-1,-1,-1,-1,-1,-1],"loss_changes":[5.529976E3,1.2138787E3,5.07928E3,4.0208813E2,8.326826E2,2.750775E3,1.2800541E3,7.420233E1,2.2494061E2,8.875293E1,6.6666125E2,5.312549E2,1.2300177E3,4.085451E2,9.619502E2,2.5557049E1,3.995105E1,7.659427E1,1.701717E2,9.3836945E1,3.2158447E1,5.8064453E2,6.0924255E1,3.6626758E2,5.9987646E2,8.7684753E2,8.1421094E2,8.593567E1,1.4192247E2,6.9919147E2,2.4644019E2,0E0,0E0,0E0,0E0,0E0,0E0,0E0,0E0,0E0,0E0,0E0,0E0,0E0,0E0,0E0,0E0,0E0,0E0,0E0,0E0,0E0,0E0,0E0,0E0,0E0,0E0,0E0,0E0,0E0,0E0,0E0,0E0],"parents":[2147483647,0,0,1,1,2,2,3,3,4,4,5,5,6,6,7,7,8,8,9,9,10,10,11,11,12,12,13,13,14,14,15,15,16,16,17,17,18,18,19,19,20,20,21,21,22,22,23,23,24,24,25,25,26,26,27,27,28,28,29,29,30,30],"right_children":[2,4,6,8,10,12,14,16,18,20,22,24,26,28,30,32,34,36,38,40,42,44,46,48,50,52,54,56,58,60,62,-1,-1,-1,-1,-1,-1,-1,-1,-1,-1,-1,-1,-1,-1,-1,-1,-1,-1,-1,-1,-1,-1,-1,-1,-1,-1,-1,-1,-1,-1,-1,-1],"split_conditions":[-2.1E0,3.62E2,1.5171356E0,8.9E0,-6.7E0,4.79E2,3.89E2,1.2E0,8.5E1,4.09E2,3.51E2,6E0,2.9E0,9.342912E0,3.8113399E0,3E0,-8.6E0,9.5E0,2.8551523E2,-8.6E0,-8.6E0,5.12E2,1.3890946E0,1.7502809E4,2.16E2,7.26E2,3.23E2,2.2385328E0,3.16E2,3.21E2,3.33E2,2.4104206E-1,-1.0541688E-1,-3.3065032E-2,-1.2625742E-1,-1.3006829E-1,1.2729046E-1,2.9917523E-1,1.0850235E-2,9.0304285E-2,2.6461497E-2,1.11651175E-1,8.996121E-2,2.2426074E-2,6.877932E-2,-2.217721E-1,-9.926767E-2,-1.0433233E-1,3.43503E-2,-1.3052025E-1,4.5450628E-2,-8.2142875E-2,5.2588403E-2,1.9495988E-2,-1.3174517E-1,-1.2573735E-1,-6.6129014E-2,2.0427955E-2,-1.4606155E-1,2.6682023E-2,-7.397803E-2,9.0520844E-2,-1.0129281E-1],"split_indices":[5,3,14,4,5,3,3,4,0,3,0,6,4,8,14,1,5,2,11,5,5,3,14,10,0,3,0,14,0,0,0,0,0,0,0,0,0,0,0,0,0,0,0,0,0,0,0,0,0,0,0,0,0,0,0,0,0,0,0,0,0,0,0],"split_type":[0,0,0,0,0,0,0,0,0,0,0,0,0,0,0,0,0,0,0,0,0,0,0,0,0,0,0,0,0,0,0,0,0,0,0,0,0,0,0,0,0,0,0,0,0,0,0,0,0,0,0,0,0,0,0,0,0,0,0,0,0,0,0],"sum_hessian":[6.1387695E4,2.0420016E4,4.0967684E4,1.9075297E3,1.8512484E4,2.4075062E4,1.6892621E4,6.172501E2,1.2902795E3,4.952203E3,1.3560282E4,1.2007616E4,1.2067446E4,1.9553689E3,1.4937251E4,1.1879885E1,6.0537024E2,1.984213E2,1.0918583E3,1.2901223E3,3.662081E3,1.3354395E4,2.0588771E2,1.0974406E4,1.0332101E3,4.8064546E3,7.2609917E3,1.2294974E3,7.2587146E2,1.1533527E4,3.4037236E3,8.970849E0,2.9090362E0,6.4245094E1,5.411251E2,1.8376671E2,1.465459E1,2.483532E1,1.067023E3,8.6720276E2,4.229196E2,2.2636829E3,1.3983982E3,7.015111E3,6.3392837E3,9.464132E1,1.1124639E2,1.0734967E4,2.3943929E2,3.7233304E2,6.60877E2,4.1112886E3,6.9516595E2,6.7931484E3,4.6784305E2,7.07862E2,5.2163544E2,6.570976E2,6.8773865E1,1.0610218E4,9.233096E2,3.3198828E3,8.384082E1],"tree_param":{"num_deleted":"0","num_feature":"15","num_nodes":"63","size_leaf_vector":"1"}},{"base_weights":[-2.5812725E-3,-4.933107E-1,1.6534619E-1,-8.6096543E-1,-1.3434288E-1,-5.006643E-1,2.5613987E-1,-9.782831E-1,-3.137833E-1,-3.0828884E-1,4.4241783E-1,9.828143E-2,-6.972606E-1,4.629108E-1,7.1257493E-3,-9.9103886E-1,1.759714E0,-1.1040168E0,-6.736633E-2,3.934642E-1,-4.7951764E-1,-1.6245476E0,4.7990385E-1,-1.0955951E0,2.4655582E-1,-8.464895E-1,-1.0156253E-1,8.856692E-1,3.746519E-1,-3.3718407E-1,2.8696898E-1,-1.53390905E-2,-1.1346056E-1,-5.143784E-2,4.7904488E-1,-1.3520592E-1,2.8490314E-1,-1.1150047E-1,3.5086595E-2,-5.568213E-2,9.626559E-2,-7.1585536E-2,1.9250548E-2,8.507349E-2,-2.6180193E-1,-1.9473385E-3,6.903371E-2,-1.456964E-1,8.161874E-2,-2.1436024E-1,3.215215E-2,2.0862147E-2,-9.773178E-2,-4.761002E-2,9.296686E-2,1.1223104E-1,8.682634E-2,4.825884E-2,-3.689835E-2,-8.0065705E-2,-1.3484227E-3,1.6995037E-2,8.309496E-2],"categories":[],"categories_nodes":[],"categories_segments":[],"categories_sizes":[],"default_left":[0,0,0,0,0,0,0,0,0,0,0,0,0,0,0,0,0,0,0,0,0,0,0,0,0,0,0,0,0,0,0,0,0,0,0,0,0,0,0,0,0,0,0,0,0,0,0,0,0,0,0,0,0,0,0,0,0,0,0,0,0,0,0],"id":19,"left_children":[1,3,5,7,9,11,13,15,17,19,21,23,25,27,29,31,33,35,37,39,41,43,45,47,49,51,53,55,57,59,61,-1,-1,-1,-1,-1,-1,-1,-1,-1,-1,-1,-1,-1,-1,-1,-1,-1,-1,-1,-1,-1,-1,-1,-1,-1,-1,-1,-1,-1,-1,-1,-1],"loss_changes":[4.8957476E3,1.998887E3,2.6766755E3,4.800327E2,7.6913586E2,6.253865E2,2.0056531E3,2.1692139E2,2.5745813E2,7.078836E2,1.3842548E2,2.3273952E2,3.5534473E2,7.9373584E2,1.7028888E3,1.6268018E2,1.663909E2,1.3471478E2,3.6299054E2,4.905816E2,5.1145276E2,5.7744423E1,1.2333502E2,5.8674866E1,1.102867E2,1.125376E2,2.4694302E2,4.6889893E1,7.4854224E2,9.893516E2,6.023483E2,0E0,0E0,0E0,0E0,0E0,0E0,0E0,0E0,0E0,0E0,0E0,0E0,0E0,0E0,0E0,0E0,0E0,0E0,0E0,0E0,0E0,0E0,0E0,0E0,0E0,0E0,0E0,0E0,0E0,0E0,0E0,0E0],"parents":[2147483647,0,0,1,1,2,2,3,3,4,4,5,5,6,6,7,7,8,8,9,9,10,10,11,11,12,12,13,13,14,14,15,15,16,16,17,17,18,18,19,19,20,20,21,21,22,22,23,23,24,24,25,25,26,26,27,27,28,28,29,29,30,30],"right_children":[2,4,6,8,10,12,14,16,18,20,22,24,26,28,30,32,34,36,38,40,42,44,46,48,50,52,54,56,58,60,62,-1,-1,-1,-1,-1,-1,-1,-1,-1,-1,-1,-1,-1,-1,-1,-1,-1,-1,-1,-1,-1,-1,-1,-1,-1,-1,-1,-1,-1,-1,-1,-1],"split_conditions":[3.8405728E0,5.12E2,3.71E2,1.8261597E0,1.9678644E0,-4.6E0,-7E-1,3.31E1,5.4E0,-4E0,3.5288492E2,8.4E1,1.73E1,-7.4E0,1.4621912E0,-4.9E0,1.6E0,3.4E0,3.99E2,2.33E2,3.8E0,1.9928643E0,1.6186414E0,9.5E0,1.7398064E3,-5.8E0,3.6E0,-1.09E1,3.19E2,4.99E2,6.36E2,-1.53390905E-2,-1.1346056E-1,-5.143784E-2,4.7904488E-1,-1.3520592E-1,2.8490314E-1,-1.1150047E-1,3.5086595E-2,-5.568213E-2,9.626559E-2,-7.1585536E-2,1.9250548E-2,8.507349E-2,-2.6180193E-1,-1.9473385E-3,6.903371E-2,-1.456964E-1,8.161874E-2,-2.1436024E-1,3.215215E-2,2.0862147E-2,-9.773178E-2,-4.761002E-2,9.296686E-2,1.1223104E-1,8.682634E-2,4.825884E-2,-3.689835E-2,-8.0065705E-2,-1.3484227E-3,1.6995037E-2,8.309496E-2],"split_indices":[8,3,3,14,14,5,5,4,4,2,11,0,4,5,14,2,5,5,3,0,2,14,8,2,11,2,2,5,0,3,3,0,0,0,0,0,0,0,0,0,0,0,0,0,0,0,0,0,0,0,0,0,0,0,0,0,0,0,0,0,0,0,0],"split_type":[0,0,0,0,0,0,0,0,0,0,0,0,0,0,0,0,0,0,0,0,0,0,0,0,0,0,0,0,0,0,0,0,0,0,0,0,0,0,0,0,0,0,0,0,0,0,0,0,0,0,0,0,0,0,0,0,0,0,0,0,0,0,0],"sum_hessian":[5.9407414E4,1.5145687E4,4.4261727E4,7.4816177E3,7.664069E3,5.309532E3,3.8952195E4,6.1600864E3,1.3215314E3,5.888588E3,1.7754808E3,1.3122281E3,3.997304E3,2.1280719E4,1.7671477E4,6.132156E3,2.7930351E1,3.1330728E2,1.00822406E3,1.1547476E3,4.7338403E3,3.0872007E1,1.7446088E3,1.4426285E2,1.1679653E3,3.1961997E3,8.0110425E2,3.673878E3,1.760684E4,7.9230337E3,9.748442E3,2.1612915E2,5.916027E3,1.5375776E1,1.2554575E1,3.0451373E2,8.79354E0,2.9228616E2,7.1593787E2,3.9965268E2,7.550949E2,3.7770833E3,9.567569E2,7.2411184E0,2.363089E1,3.8765982E2,1.356949E3,1.2923047E2,1.5032381E1,2.1818373E1,1.146147E3,1.014992E2,3.0947004E3,5.944361E2,2.0666809E2,1.6566292E3,2.0172488E3,1.6227614E4,1.3792264E3,3.6308574E3,4.2921763E3,7.558135E3,2.190308E3],"tree_param":{"num_deleted":"0","num_feature":"15","num_nodes":"63","size_leaf_vector":"1"}},{"base_weights":[-2.7764803E-3,-1.5303755E-1,4.7437647E-1,-5.118926E-1,8.585978E-2,3.3032233E-1,8.0522764E-1,-7.790585E-1,-5.173411E-2,-1.5556444E-1,3.1535548E-1,3.9707866E-1,-4.4064116E-1,8.9149976E-1,4.3724528E-1,-4.2084315E-1,-9.2111534E-1,-4.8018706E-1,3.9110944E-1,-3.95985E-1,3.2395783E-1,2.009576E-1,7.5817907E-1,1.8272153E-1,5.9004205E-1,-1.5683992E0,-2.8911173E-2,-1.583188E-1,8.991783E-1,-3.4533906E-1,7.9600674E-1,1.0143744E-2,-7.020322E-2,-1.0872153E-1,-6.826689E-2,-2.6523247E-3,-8.322138E-2,8.955503E-2,1.9222004E-2,-5.334366E-2,8.057496E-2,-5.1830325E-2,4.5671355E-2,-9.965097E-2,3.0089376E-2,-2.7083528E-1,8.557783E-2,-3.8916476E-2,3.758311E-2,-3.5568064E-1,6.649432E-2,-2.0733178E-1,8.084559E-2,-8.807816E-2,4.7027666E-2,1.0060495E-1,-1.2342635E-1,-2.3833932E-1,3.8019954E-3,9.049429E-2,-3.0008125E-1],"categories":[],"categories_nodes":[],"categories_segments":[],"categories_sizes":[],"default_left":[0,0,0,0,0,0,0,0,0,0,0,0,0,0,0,0,0,0,0,0,0,0,0,0,0,0,0,0,0,0,0,0,0,0,0,0,0,0,0,0,0,0,0,0,0,0,0,0,0,0,0,0,0,0,0,0,0,0,0,0,0],"id":20,"left_children":[1,3,5,7,9,11,13,15,17,19,21,23,25,27,29,31,33,35,37,39,41,43,45,47,49,51,53,-1,55,57,59,-1,-1,-1,-1,-1,-1,-1,-1,-1,-1,-1,-1,-1,-1,-1,-1,-1,-1,-1,-1,-1,-1,-1,-1,-1,-1,-1,-1,-1,-1],"loss_changes":[4.134162E3,3.7594302E3,6.578982E2,2.1545703E3,1.4587085E3,4.9540186E2,1.3256958E2,5.638511E2,1.2218716E3,1.4793354E3,6.8358875E2,3.6620447E2,3.562157E2,6.1646973E1,2.241475E2,3.4155164E2,1.4120752E2,4.025506E2,2.8675586E2,8.113888E2,2.967336E2,8.266891E2,1.1523108E2,3.4898907E2,1.6116504E2,1.4247726E2,1.951821E2,0E0,4.9781494E1,1.7198193E2,3.9068542E1,0E0,0E0,0E0,0E0,0E0,0E0,0E0,0E0,0E0,0E0,0E0,0E0,0E0,0E0,0E0,0E0,0E0,0E0,0E0,0E0,0E0,0E0,0E0,0E0,0E0,0E0,0E0,0E0,0E0,0E0],"parents":[2147483647,0,0,1,1,2,2,3,3,4,4,5,5,6,6,7,7,8,8,9,9,10,10,11,11,12,12,13,13,14,14,15,15,16,16,17,17,18,18,19,19,20,20,21,21,22,22,23,23,24,24,25,25,26,26,28,28,29,29,30,30],"right_children":[2,4,6,8,10,12,14,16,18,20,22,24,26,28,30,32,34,36,38,40,42,44,46,48,50,52,54,-1,56,58,60,-1,-1,-1,-1,-1,-1,-1,-1,-1,-1,-1,-1,-1,-1,-1,-1,-1,-1,-1,-1,-1,-1,-1,-1,-1,-1,-1,-1,-1,-1],"split_conditions":[1.0131634E1,4.65E2,1.6903845E1,9.3E0,3.7E0,3.2E2,6.1E0,-1.8E0,3.87E2,6.62E2,6.31E2,4.51E2,-5.7E0,3.39E2,4.69E2,6E0,1.7659624E0,-2.1E0,6E0,5.4E0,6E1,6.393426E2,7E0,-4.3E0,3.2910473E1,5.405E3,9.4E0,-1.583188E-1,3.57E2,1.8619614E1,3.43E2,1.0143744E-2,-7.020322E-2,-1.0872153E-1,-6.826689E-2,-2.6523247E-3,-8.322138E-2,8.955503E-2,1.9222004E-2,-5.334366E-2,8.057496E-2,-5.1830325E-2,4.5671355E-2,-9.965097E-2,3.0089376E-2,-2.7083528E-1,8.557783E-2,-3.8916476E-2,3.758311E-2,-3.5568064E-1,6.649432E-2,-2.0733178E-1,8.084559E-2,-8.807816E-2,4.7027666E-2,1.0060495E-1,-1.2342635E-1,-2.3833932E-1,3.8019954E-3,9.049429E-2,-3.0008125E-1],"split_indices":[8,3,8,4,4,0,5,5,3,3,3,3,6,3,3,1,14,5,1,2,0,11,0,12,11,7,4,0,0,8,0,0,0,0,0,0,0,0,0,0,0,0,0,0,0,0,0,0,0,0,0,0,0,0,0,0,0,0,0,0,0],"split_type":[0,0,0,0,0,0,0,0,0,0,0,0,0,0,0,0,0,0,0,0,0,0,0,0,0,0,0,0,0,0,0,0,0,0,0,0,0,0,0,0,0,0,0,0,0,0,0,0,0,0,0,0,0,0,0,0,0,0,0,0,0],"sum_hessian":[5.7659145E4,4.385072E4,1.3808427E4,1.7524893E4,2.6325824E4,9.621276E3,4.187151E3,1.1087087E4,6.4378057E3,1.2829649E4,1.3496176E4,8.8550205E3,7.662553E2,3.3907734E3,7.9637756E2,3.1494033E3,7.937684E3,3.2720244E3,3.1657812E3,8.545381E3,4.2842676E3,1.0726559E4,2.7696172E3,4.195886E3,4.6591343E3,2.0418062E2,5.620747E2,1.0586047E1,3.3801875E3,2.5033867E2,5.460389E2,9.2090186E2,2.2285015E3,6.6648286E3,1.2728556E3,1.2155231E3,2.0565012E3,1.0879457E3,2.0778354E3,7.9467773E3,5.9860364E2,4.2631927E2,3.8579485E3,6.427749E2,1.0083783E4,1.0278209E1,2.759339E3,9.486521E2,3.2472341E3,1.0192141E1,4.6489424E3,1.8079486E2,2.3385765E1,2.0871783E2,3.5335684E2,3.3687224E3,1.1465024E1,4.275075E1,2.0758792E2,5.4381335E2,2.2255301E0],"tree_param":{"num_deleted":"0","num_feature":"15","num_nodes":"61","size_leaf_vector":"1"}},{"base_weights":[-2.7405568E-3,-4.4688475E-1,1.4458661E-1,-8.1716263E-1,-1.23621844E-1,4.00639E-2,5.99199E-1,-9.9641806E-1,-4.3465444E-1,-4.210683E-1,1.6885552E-1,-1.4313608E-1,3.6337554E-1,4.355413E-1,8.367851E-1,-1.0141181E0,1.7653825E0,-9.199234E-1,-1.2124894E-1,-6.199522E-1,5.1083946E-1,-1.5612265E0,2.1854909E-1,-4.5044E-1,8.946439E-2,-1.032461E0,3.9686668E-1,5.6908536E-1,-8.289901E-2,-4.1293037E-1,8.4197605E-1,-5.522456E-2,-1.1513574E-1,3.808467E-1,-3.1003363E-2,-1.1141249E-1,8.751004E-2,-5.438697E-2,7.390997E-2,9.00371E-2,-8.282388E-2,6.2621005E-2,-4.218958E-1,-1.8681686E-1,5.2373726E-2,3.3577505E-2,-1.02747925E-1,-1.5584252E-2,-7.773228E-2,-3.6638856E-2,3.3159394E-2,-1.6844746E-1,3.0187804E-2,6.639317E-2,2.1241995E-2,-2.250132E-2,7.011112E-2,-1.3026258E-1,1.2979025E-2,9.457216E-2,-1.321875E-1],"categories":[],"categories_nodes":[],"categories_segments":[],"categories_sizes":[],"default_left":[0,0,0,0,0,0,0,0,0,0,0,0,0,0,0,0,0,0,0,0,0,0,0,0,0,0,0,0,0,0,0,0,0,0,0,0,0,0,0,0,0,0,0,0,0,0,0,0,0,0,0,0,0,0,0,0,0,0,0,0,0],"id":21,"left_children":[1,3,5,7,9,11,13,15,17,19,21,23,25,27,29,31,33,35,37,39,41,43,45,47,49,51,53,55,57,-1,59,-1,-1,-1,-1,-1,-1,-1,-1,-1,-1,-1,-1,-1,-1,-1,-1,-1,-1,-1,-1,-1,-1,-1,-1,-1,-1,-1,-1,-1,-1],"loss_changes":[3.6579263E3,1.6666118E3,1.9946431E3,4.4456934E2,6.469199E2,2.0216904E3,3.047522E2,2.1777686E2,3.151194E2,6.8360565E2,3.227183E2,1.5573738E3,5.7753064E2,3.2188678E2,7.881714E1,5.197461E1,9.802696E1,1.17194885E2,3.6615927E2,5.494452E2,1.5132188E2,2.6751923E1,3.504937E2,7.2701965E2,1.0889427E3,1.83624E2,4.985597E2,1.785708E2,2.078372E2,0E0,6.616406E1,0E0,0E0,0E0,0E0,0E0,0E0,0E0,0E0,0E0,0E0,0E0,0E0,0E0,0E0,0E0,0E0,0E0,0E0,0E0,0E0,0E0,0E0,0E0,0E0,0E0,0E0,0E0,0E0,0E0,0E0],"parents":[2147483647,0,0,1,1,2,2,3,3,4,4,5,5,6,6,7,7,8,8,9,9,10,10,11,11,12,12,13,13,14,14,15,15,16,16,17,17,18,18,19,19,20,20,21,21,22,22,23,23,24,24,25,25,26,26,27,27,28,28,30,30],"right_children":[2,4,6,8,10,12,14,16,18,20,22,24,26,28,30,32,34,36,38,40,42,44,46,48,50,52,54,56,58,-1,60,-1,-1,-1,-1,-1,-1,-1,-1,-1,-1,-1,-1,-1,-1,-1,-1,-1,-1,-1,-1,-1,-1,-1,-1,-1,-1,-1,-1,-1,-1],"split_conditions":[3.8405728E0,5.12E2,1.30268955E1,1.2254906E0,3E0,5.42E2,4.91E2,3.31E1,4.09E2,7.26E2,2.1E1,6.6E0,1.7E1,3.6E0,7E0,1E0,-2.2E0,5.7E0,8.8E0,-5.2E0,3.46E2,6.7E0,3.19E2,-1.5E0,3.87E2,2.1E1,-7E-1,3.91469E2,1.0473826E0,-4.1293037E-1,3.5E2,-5.522456E-2,-1.1513574E-1,3.808467E-1,-3.1003363E-2,-1.1141249E-1,8.751004E-2,-5.438697E-2,7.390997E-2,9.00371E-2,-8.282388E-2,6.2621005E-2,-4.218958E-1,-1.8681686E-1,5.2373726E-2,3.3577505E-2,-1.02747925E-1,-1.5584252E-2,-7.773228E-2,-3.6638856E-2,3.3159394E-2,-1.6844746E-1,3.0187804E-2,6.639317E-2,2.1241995E-2,-2.250132E-2,7.011112E-2,-1.3026258E-1,1.2979025E-2,9.457216E-2,-1.321875E-1],"split_indices":[8,3,8,14,4,3,3,4,3,3,0,4,0,5,0,1,13,2,4,2,0,12,0,5,3,1,5,11,14,0,0,0,0,0,0,0,0,0,0,0,0,0,0,0,0,0,0,0,0,0,0,0,0,0,0,0,0,0,0,0,0],"split_type":[0,0,0,0,0,0,0,0,0,0,0,0,0,0,0,0,0,0,0,0,0,0,0,0,0,0,0,0,0,0,0,0,0,0,0,0,0,0,0,0,0,0,0,0,0,0,0,0,0,0,0,0,0,0,0,0,0,0,0,0,0],"sum_hessian":[5.590011E4,1.3923422E4,4.197669E4,6.489066E3,7.4343555E3,3.41306E4,7.846087E3,4.4173506E3,2.0717153E3,3.685649E3,3.7487068E3,2.1786275E4,1.2344328E4,4.647534E3,3.198553E3,4.3898496E3,2.7501156E1,8.121963E2,1.259519E3,3.037692E3,6.47957E2,1.0381932E2,3.6448875E3,9.385514E3,1.2400761E4,2.885457E2,1.2055782E4,3.6955154E3,9.5201855E2,2.825206E0,3.1957278E3,1.8917479E2,4.200675E3,1.4781591E1,1.2719564E1,7.746137E2,3.758259E1,8.579737E2,4.0154535E2,2.4574406E2,2.791948E3,6.409014E2,7.0555162E0,9.8113174E1,5.70615E0,3.3964255E3,2.4846175E2,4.188965E3,5.196549E3,4.126779E3,8.273982E3,2.1021019E2,7.8335495E1,6.0895713E3,5.966211E3,2.7686423E2,3.4186514E3,1.4666454E2,8.05354E2,3.1806228E3,1.51048355E1],"tree_param":{"num_deleted":"0","num_feature":"15","num_nodes":"61","size_leaf_vector":"1"}},{"base_weights":[-2.7671328E-3,3.348691E-1,-1.7242986E-1,6.9307005E-1,2.1645181E-1,-4.6771532E-1,1.00021675E-1,3.7216267E-1,8.436389E-1,1.6485369E-2,4.8947272E-1,-7.82817E-1,-1.9464439E-1,-2.5272802E-2,5.4924655E-1,-1.2637843E0,4.6475086E-1,9.444911E-1,6.9337183E-1,-1.5608469E-1,5.023615E-1,-9.0289307E-1,5.159888E-1,-8.703925E-1,-1.2856895E-1,-6.014777E-1,7.0212886E-2,-1.3869984E-1,5.2360076E-1,3.6390528E-1,8.702608E-1,-2.3613653E-1,3.7624168E-3,5.9146143E-2,-7.258901E-2,1.1169694E-1,9.464228E-2,8.0091655E-2,-1.4926657E-1,-8.874554E-2,-3.6906088E-3,-8.158816E-3,8.069049E-2,1.6929852E-2,-2.689979E-1,5.9580833E-2,-1.265175E-1,-1.02381594E-1,-6.1268467E-3,-1.04285285E-1,4.3707334E-2,8.642295E-3,-8.915337E-2,1.6245315E-2,-1.1269623E-1,-7.087766E-3,-9.909123E-2,6.5060735E-2,-1.5599388E-1,7.33761E-2,2.645728E-3,-8.337597E-2,9.804587E-2],"categories":[],"categories_nodes":[],"categories_segments":[],"categories_sizes":[],"default_left":[0,0,0,0,0,0,0,0,0,0,0,0,0,0,0,0,0,0,0,0,0,0,0,0,0,0,0,0,0,0,0,0,0,0,0,0,0,0,0,0,0,0,0,0,0,0,0,0,0,0,0,0,0,0,0,0,0,0,0,0,0,0,0],"id":22,"left_children":[1,3,5,7,9,11,13,15,17,19,21,23,25,27,29,31,33,35,37,39,41,43,45,47,49,51,53,55,57,59,61,-1,-1,-1,-1,-1,-1,-1,-1,-1,-1,-1,-1,-1,-1,-1,-1,-1,-1,-1,-1,-1,-1,-1,-1,-1,-1,-1,-1,-1,-1,-1,-1],"loss_changes":[3.1097732E3,7.6996875E2,2.906809E3,2.1762329E2,7.450175E2,1.4917866E3,1.0577755E3,2.1903929E2,4.5858154E1,6.606389E2,2.1346948E2,4.6110156E2,1.00110474E3,9.1496173E2,2.4353198E2,8.694483E1,1.043884E2,9.550171E0,7.19671E1,4.5949628E2,2.6711273E2,1.7397456E2,1.9538672E2,3.0067773E2,4.0339032E2,5.0204797E2,4.6530286E2,6.8728577E2,3.044225E2,2.6271457E2,3.2355103E1,0E0,0E0,0E0,0E0,0E0,0E0,0E0,0E0,0E0,0E0,0E0,0E0,0E0,0E0,0E0,0E0,0E0,0E0,0E0,0E0,0E0,0E0,0E0,0E0,0E0,0E0,0E0,0E0,0E0,0E0,0E0,0E0],"parents":[2147483647,0,0,1,1,2,2,3,3,4,4,5,5,6,6,7,7,8,8,9,9,10,10,11,11,12,12,13,13,14,14,15,15,16,16,17,17,18,18,19,19,20,20,21,21,22,22,23,23,24,24,25,25,26,26,27,27,28,28,29,29,30,30],"right_children":[2,4,6,8,10,12,14,16,18,20,22,24,26,28,30,32,34,36,38,40,42,44,46,48,50,52,54,56,58,60,62,-1,-1,-1,-1,-1,-1,-1,-1,-1,-1,-1,-1,-1,-1,-1,-1,-1,-1,-1,-1,-1,-1,-1,-1,-1,-1,-1,-1,-1,-1,-1,-1],"split_conditions":[-2.1E0,-6.7E0,1.2562679E0,4E2,5.1E2,4.77E2,6.36E2,4.6531743E3,-8.6E0,1.3E1,2.7367864E0,6.1E0,2.9E0,3.8113399E0,4.1E0,2.05E2,3.2E2,-1.09E1,3.51E2,-2.6E0,3.71E2,7.4628353E-1,3.5E2,1.73E1,2.16E2,-3.6E0,3.23E2,3.19E2,3.33E2,-2.3E0,1.6E1,-2.3613653E-1,3.7624168E-3,5.9146143E-2,-7.258901E-2,1.1169694E-1,9.464228E-2,8.0091655E-2,-1.4926657E-1,-8.874554E-2,-3.6906088E-3,-8.158816E-3,8.069049E-2,1.6929852E-2,-2.689979E-1,5.9580833E-2,-1.265175E-1,-1.02381594E-1,-6.1268467E-3,-1.04285285E-1,4.3707334E-2,8.642295E-3,-8.915337E-2,1.6245315E-2,-1.1269623E-1,-7.087766E-3,-9.909123E-2,6.5060735E-2,-1.5599388E-1,7.33761E-2,2.645728E-3,-8.337597E-2,9.804587E-2],"split_indices":[5,5,14,3,3,3,3,11,5,4,8,12,4,14,4,0,0,5,0,12,3,14,0,4,0,2,0,0,0,2,0,0,0,0,0,0,0,0,0,0,0,0,0,0,0,0,0,0,0,0,0,0,0,0,0,0,0,0,0,0,0,0,0],"split_type":[0,0,0,0,0,0,0,0,0,0,0,0,0,0,0,0,0,0,0,0,0,0,0,0,0,0,0,0,0,0,0,0,0,0,0,0,0,0,0,0,0,0,0,0,0,0,0,0,0,0,0,0,0,0,0,0,0,0,0,0,0,0,0],"sum_hessian":[5.4284668E4,1.8154818E4,3.612985E4,4.509415E3,1.3645402E4,1.7338025E4,1.8791826E4,1.4412185E3,3.0681965E3,7.877102E3,5.7683003E3,8.048659E3,9.289365E3,1.4694335E4,4.0974917E3,7.652065E1,1.3646979E3,1.8328134E3,1.2353832E3,5.813118E3,2.063984E3,1.07180626E2,5.6611196E3,7.0981885E3,9.504706E2,3.6624294E3,5.626936E3,1.2178371E4,2.5159644E3,2.5990398E3,1.4984517E3,4.5561394E1,3.0959257E1,1.2868868E3,7.781099E1,1.0898071E3,7.430063E2,1.2191755E3,1.62077E1,9.30993E2,4.8821255E3,5.792787E2,1.4847051E3,6.3797398E1,4.338323E1,5.591636E3,6.9483376E1,6.672709E3,4.2547958E2,3.7204922E2,5.784214E2,8.3861743E2,2.823812E3,5.2589175E3,3.6801825E2,1.107965E4,1.0987207E3,2.4376382E3,7.83262E1,1.3865657E3,1.2124742E3,1.1499268E1,1.4869524E3],"tree_param":{"num_deleted":"0","num_feature":"15","num_nodes":"63","size_leaf_vector":"1"}},{"base_weights":[-2.5582458E-3,-4.052747E-1,1.2710534E-1,-6.4915466E-1,4.921834E-2,-4.9354702E-1,1.9140948E-1,-8.0850494E-1,-1.1049607E-1,-4.262298E-1,2.7330634E-1,-6.9805866E-1,8.72164E-2,2.4964316E-1,-4.5699814E-1,-5.7107765E-2,-8.7171435E-1,-8.347718E-1,1.2360835E-1,-8.3978385E-1,4.8458877E-1,-1.4556062E0,3.349206E-1,-9.221037E-2,-8.501502E-1,-9.982998E-1,2.786558E-1,8.603258E-2,5.8473486E-1,-1.2059695E0,-1.4493555E-1,1.2120952E-1,-5.598771E-2,-1.0087921E-1,1.3502455E-2,-1.0870859E-1,1.06228925E-1,-9.3840964E-2,3.0310692E-2,-1.5660794E-2,-1.3453512E-1,-1.993382E-2,8.738955E-2,-1.861472E-1,-1.463025E-2,4.6567615E-2,-1.1388759E-1,6.147657E-3,-1.9373795E-1,-4.2781252E-2,-1.04350135E-1,-1.4528401E-2,-1.4427108E-1,2.414297E-1,2.2680433E-2,-7.649646E-2,3.4749534E-2,-4.388808E-2,8.76043E-2,5.595509E-2,-1.4732099E-1,-5.589476E-2,5.7488136E-2],"categories":[],"categories_nodes":[],"categories_segments":[],"categories_sizes":[],"default_left":[0,0,0,0,0,0,0,0,0,0,0,0,0,0,0,0,0,0,0,0,0,0,0,0,0,0,0,0,0,0,0,0,0,0,0,0,0,0,0,0,0,0,0,0,0,0,0,0,0,0,0,0,0,0,0,0,0,0,0,0,0,0,0],"id":23,"left_children":[1,3,5,7,9,11,13,15,17,19,21,23,25,27,29,31,33,35,37,39,41,43,45,47,49,51,53,55,57,59,61,-1,-1,-1,-1,-1,-1,-1,-1,-1,-1,-1,-1,-1,-1,-1,-1,-1,-1,-1,-1,-1,-1,-1,-1,-1,-1,-1,-1,-1,-1,-1,-1],"loss_changes":[2.7597024E3,1.4267705E3,1.5956426E3,7.18947E2,4.7912283E2,4.4586926E2,1.3679656E3,3.0697803E2,3.2455707E2,5.4304456E2,3.260642E2,2.5571814E2,2.0360257E2,1.822373E3,6.976561E2,2.589097E2,2.1990137E2,1.2206412E2,2.098006E2,2.576057E2,9.071035E1,3.0657928E1,3.4033505E2,1.3629115E2,9.238306E1,3.824034E1,1.1690132E2,3.9312202E3,2.1860417E3,1.8271082E2,5.015195E2,0E0,0E0,0E0,0E0,0E0,0E0,0E0,0E0,0E0,0E0,0E0,0E0,0E0,0E0,0E0,0E0,0E0,0E0,0E0,0E0,0E0,0E0,0E0,0E0,0E0,0E0,0E0,0E0,0E0,0E0,0E0,0E0],"parents":[2147483647,0,0,1,1,2,2,3,3,4,4,5,5,6,6,7,7,8,8,9,9,10,10,11,11,12,12,13,13,14,14,15,15,16,16,17,17,18,18,19,19,20,20,21,21,22,22,23,23,24,24,25,25,26,26,27,27,28,28,29,29,30,30],"right_children":[2,4,6,8,10,12,14,16,18,20,22,24,26,28,30,32,34,36,38,40,42,44,46,48,50,52,54,56,58,60,62,-1,-1,-1,-1,-1,-1,-1,-1,-1,-1,-1,-1,-1,-1,-1,-1,-1,-1,-1,-1,-1,-1,-1,-1,-1,-1,-1,-1,-1,-1,-1,-1],"split_conditions":[3.8405728E0,5.95E2,3.63E2,1.8261597E0,2.4E0,1.73E1,3.2E2,-4.5E0,1.6881943E0,7.26E2,2.6E1,-5.3E0,8.5E1,2.39E2,1E-1,-1.9E0,5.4E0,6.101757E0,3.99E2,-2.6E0,2.09E2,4.6E0,3.26E2,5.1E0,2.8551523E2,1.9E1,4.5279976E-2,3.848109E3,-4E-1,-8.6E0,9.6E0,1.2120952E-1,-5.598771E-2,-1.0087921E-1,1.3502455E-2,-1.0870859E-1,1.06228925E-1,-9.3840964E-2,3.0310692E-2,-1.5660794E-2,-1.3453512E-1,-1.993382E-2,8.738955E-2,-1.861472E-1,-1.463025E-2,4.6567615E-2,-1.1388759E-1,6.147657E-3,-1.9373795E-1,-4.2781252E-2,-1.04350135E-1,-1.4528401E-2,-1.4427108E-1,2.414297E-1,2.2680433E-2,-7.649646E-2,3.4749534E-2,-4.388808E-2,8.76043E-2,5.595509E-2,-1.4732099E-1,-5.589476E-2,5.7488136E-2],"split_indices":[8,3,3,14,4,4,0,2,8,3,0,5,0,0,12,5,2,14,3,2,0,12,0,6,11,0,14,11,12,5,4,0,0,0,0,0,0,0,0,0,0,0,0,0,0,0,0,0,0,0,0,0,0,0,0,0,0,0,0,0,0,0,0],"split_type":[0,0,0,0,0,0,0,0,0,0,0,0,0,0,0,0,0,0,0,0,0,0,0,0,0,0,0,0,0,0,0,0,0,0,0,0,0,0,0,0,0,0,0,0,0,0,0,0,0,0,0,0,0,0,0,0,0,0,0,0,0,0,0],"sum_hessian":[5.2847992E4,1.2870853E4,3.997714E4,8.375923E3,4.4949297E3,3.752452E3,3.6224688E4,6.4633745E3,1.912548E3,1.4396077E3,3.055322E3,2.7750396E3,9.7741223E2,3.3240008E4,2.98468E3,5.016734E2,5.961701E3,4.6655313E2,1.4459949E3,9.901235E2,4.4948416E2,1.0435888E2,2.9509631E3,5.57174E2,2.2178655E3,1.4590042E2,8.3151184E2,2.2335715E4,1.0904293E4,8.76987E2,2.1076929E3,1.401596E2,3.6151376E2,5.7471006E3,2.1460072E2,4.321362E2,3.4416935E1,1.926035E2,1.2533914E3,3.446328E2,6.4549066E2,1.408493E2,3.0863486E2,8.9177795E1,1.5181089E1,2.7788948E3,1.7206839E2,5.123943E2,4.4779774E1,3.604861E2,1.8573795E3,3.7996647E1,1.0790377E2,3.0295387E1,8.0121643E2,5.0591206E3,1.7276596E4,1.8821805E3,9.022112E3,5.7853897E1,8.191331E2,1.3678717E3,7.3982117E2],"tree_param":{"num_deleted":"0","num_feature":"15","num_nodes":"63","size_leaf_vector":"1"}},{"base_weights":[-2.6517394E-3,-1.0533439E-1,4.599779E-1,-4.9262574E-1,3.5485037E-2,3.3338496E-1,7.902548E-1,-6.689838E-1,1.6362673E-1,-6.907777E-2,5.0320065E-1,4.983471E-1,4.0131044E-2,8.2074046E-1,-3.747516E-1,-8.725007E-1,-3.6184475E-1,-5.0362045E-1,3.7712324E-1,-3.296684E-1,1.8392724E-1,8.003908E-1,3.753523E-1,-1.3972864E-1,5.9468544E-1,-1.9151875E-1,5.3886336E-1,8.84599E-1,4.615049E-1,7.675927E-2,-2.614731E0,-1.3672897E-2,-9.9142425E-2,-6.820872E-2,1.8352242E-2,1.8676965E-1,-7.1465544E-2,-1.6967915E-2,6.3011594E-2,-1.0477025E-1,-2.3310607E-2,-1.8212669E-2,3.348942E-2,3.0106068E-1,8.281109E-2,-5.093085E-2,5.1914044E-2,4.3566197E-2,-6.888073E-2,1.0890648E-2,7.513617E-2,-1.1734557E-2,-1.7431623E-1,3.4042235E-2,9.808397E-2,-1.3854659E-1,9.883065E-2,-3.947826E-2,8.0803536E-2,4.676921E-2,-2.7451083E-1,-1.0465716E-1,-3.0946848E-1],"categories":[],"categories_nodes":[],"categories_segments":[],"categories_sizes":[],"default_left":[0,0,0,0,0,0,0,0,0,0,0,0,0,0,0,0,0,0,0,0,0,0,0,0,0,0,0,0,0,0,0,0,0,0,0,0,0,0,0,0,0,0,0,0,0,0,0,0,0,0,0,0,0,0,0,0,0,0,0,0,0,0,0],"id":24,"left_children":[1,3,5,7,9,11,13,15,17,19,21,23,25,27,29,31,33,35,37,39,41,43,45,47,49,51,53,55,57,59,61,-1,-1,-1,-1,-1,-1,-1,-1,-1,-1,-1,-1,-1,-1,-1,-1,-1,-1,-1,-1,-1,-1,-1,-1,-1,-1,-1,-1,-1,-1,-1,-1],"loss_changes":[2.4537788E3,2.3054375E3,3.92021E2,1.3046458E3,1.5161586E3,3.281797E2,9.26145E1,5.5503125E2,3.4041556E2,1.6705859E3,2.1492041E2,2.6698157E2,2.8240704E2,5.770044E1,6.7925255E1,8.266016E1,4.719313E2,1.7868076E2,1.8286966E2,9.172053E2,5.2701117E2,1.7491138E2,3.054464E2,1.4619882E2,1.5395166E2,1.9732907E2,6.1787537E1,2.7552368E1,8.395933E1,5.0861355E1,6.337662E-1,0E0,0E0,0E0,0E0,0E0,0E0,0E0,0E0,0E0,0E0,0E0,0E0,0E0,0E0,0E0,0E0,0E0,0E0,0E0,0E0,0E0,0E0,0E0,0E0,0E0,0E0,0E0,0E0,0E0,0E0,0E0,0E0],"parents":[2147483647,0,0,1,1,2,2,3,3,4,4,5,5,6,6,7,7,8,8,9,9,10,10,11,11,12,12,13,13,14,14,15,15,16,16,17,17,18,18,19,19,20,20,21,21,22,22,23,23,24,24,25,25,26,26,27,27,28,28,29,29,30,30],"right_children":[2,4,6,8,10,12,14,16,18,20,22,24,26,28,30,32,34,36,38,40,42,44,46,48,50,52,54,56,58,60,62,-1,-1,-1,-1,-1,-1,-1,-1,-1,-1,-1,-1,-1,-1,-1,-1,-1,-1,-1,-1,-1,-1,-1,-1,-1,-1,-1,-1,-1,-1,-1,-1],"split_conditions":[1.154123E1,4.21E2,1.8619614E1,1.53E1,7.7E0,6.6568166E-2,3.33E2,6.2521996E0,3.42E2,5.77E2,6E0,-6.6E0,5.21E2,8.6E0,7.4E0,-4.8E0,2.6E2,4.5279976E-2,6.7467427E3,1.2635867E3,2.4E0,4.22E2,6E1,1.71E2,8.6694885E2,3.31E2,6.55E2,3.42E2,2.3932498E0,1.41E1,7E0,-1.3672897E-2,-9.9142425E-2,-6.820872E-2,1.8352242E-2,1.8676965E-1,-7.1465544E-2,-1.6967915E-2,6.3011594E-2,-1.0477025E-1,-2.3310607E-2,-1.8212669E-2,3.348942E-2,3.0106068E-1,8.281109E-2,-5.093085E-2,5.1914044E-2,4.3566197E-2,-6.888073E-2,1.0890648E-2,7.513617E-2,-1.1734557E-2,-1.7431623E-1,3.4042235E-2,9.808397E-2,-1.3854659E-1,9.883065E-2,-3.947826E-2,8.0803536E-2,4.676921E-2,-2.7451083E-1,-1.0465716E-1,-3.0946848E-1],"split_indices":[8,3,8,4,4,9,0,8,3,3,1,12,3,5,5,5,0,14,11,11,4,3,0,0,11,0,3,3,14,12,4,0,0,0,0,0,0,0,0,0,0,0,0,0,0,0,0,0,0,0,0,0,0,0,0,0,0,0,0,0,0,0,0],"split_type":[0,0,0,0,0,0,0,0,0,0,0,0,0,0,0,0,0,0,0,0,0,0,0,0,0,0,0,0,0,0,0,0,0,0,0,0,0,0,0,0,0,0,0,0,0,0,0,0,0,0,0,0,0,0,0,0,0,0,0,0,0,0,0],"sum_hessian":[5.1652094E4,4.22707E4,9.381393E3,1.1270711E4,3.099999E4,6.783379E3,2.5980142E3,8.883408E3,2.3873032E3,2.533658E4,5.6634097E3,4.3408506E3,2.4425283E3,2.5320513E3,6.596283E1,5.3419067E3,3.5415012E3,5.783644E2,1.8089388E3,1.2481034E4,1.2855546E4,1.7019288E3,3.9614807E3,5.693612E2,3.7714895E3,1.6682705E3,7.742577E2,2.1486416E3,3.8340967E2,5.5700962E1,1.0261866E1,1.4361641E2,5.1982905E3,2.3940166E3,1.1474846E3,3.4194675E1,5.4416974E2,4.7843372E2,1.3305051E3,2.0340004E3,1.0447034E4,3.2505808E3,9.604965E3,4.568849E1,1.6562404E3,3.944216E2,3.567059E3,2.7032394E2,2.9903726E2,5.3605237E2,3.235437E3,1.571557E3,9.67136E1,4.63811E2,3.104467E2,5.2135153E0,2.143428E3,9.419555E1,2.8921414E2,4.9805046E1,5.895916E0,1.5685664E0,8.693299E0],"tree_param":{"num_deleted":"0","num_feature":"15","num_nodes":"63","size_leaf_vector":"1"}},{"base_weights":[-2.5247247E-3,2.7174425E-1,-1.6063392E-1,7.720343E-1,1.9995606E-1,-3.716682E-1,1.231599E-1,4.4628984E-1,8.9140606E-1,-3.6623754E-2,3.7091428E-1,